{"architecture": [784, 196, 96, 10], "hidden_layer_weights": [[[0.041509598554047414, 0.08376676541672383, -0.010773197739512116, -0.011470496110542135, -0.06485007526407072, 0.05496500022947264, -0.00352146046766735, -0.001871283890892722, 0.021891975224281712, 0.015245019691765734, -0.007085284011113823, 0.06671954437718379, -0.08099843253852979, 0.01067195115650294, 0.020565154285268537, -0.020829003980589927, 0.031135411524507852, 0.03349103677647638, 0.05605409025089245, -0.005634614586212134, -0.01096767061068197, 0.027233433881984265, -0.009974409549534496, -0.07683947323602437, 0.04355895819638794, -0.0926453921462234, 0.020287748590987382, 0.12821328135001755, 0.026931412009318097, -0.03505765121073453, -0.022797333406668306, 0.018719327021158673, -0.0010794369007106547, 0.03819652084089736, 0.07324028447964698, 0.06638783586321488, -0.058377458293888976, 0.0008080599178107388, 0.02489024137483708, 0.07661720193207724, 0.01814105017272869, -0.034532079220437856, 0.0219729762841503, 0.09188778885102385, -0.012748199460435856, -0.03542283000805478, -0.0016400619690931663, -0.03287417029191301, 0.04176922230914279, -0.03250634028486194, 0.06528277321060932, 0.025015735502708598, 0.03520370324069366, 0.03481680940029909, 0.043025913899118716, -0.015625690539424926, -0.04939981018089708, -0.024049648792903135, 0.046787931014391694, -0.08922076608269275, -0.1009950807465771, 0.011342309705959012, 0.04264066073632029, 0.04949700308313196, -0.04802248340861809, -0.05957687411658289, -0.03465432474929437, -0.019839329602770586, -0.016935249892567308, 0.006120414545811295, 0.0709947896127847, -0.0030671213949637604, 0.04735846789159703, 0.03306535738885741, -0.03587290004259848, 0.03248118429137492, 0.02901109444649525, -2.7787149933835712e-05, 0.008779850867701569, -0.0029198620740534236, -0.05515575493137955, 0.11948466696630688, 0.05331089712107168, 0.026628084023692187, -0.02046814751051884, -0.004636296861140612, -0.059171418982573575, 0.023735497773470598, 0.016979859140225973, -0.010432700045879557, 0.001510957140886869, -0.015077684150437932, -0.02495753124879979, -0.039213483963816964, -0.05155906810634284, -0.03545149505194741, -0.0315737685001093, 0.055012878637626245, -0.03124613861569756, -0.10273824272372686, 0.014732671679608747, 0.03149699159030191, 0.048930051904214344, 0.008392558607854449, -0.05758419330938725, -0.04035203969814746, 0.030312866580715078, 0.07369263732332425, -0.05772483049697075, 0.010703464927875378, -0.02802872460983422, -0.04162182481134885, 0.001767605632043893, -0.00675020303853914, -0.10225948733212671, 0.010181948476743417, 0.016571335733593186, 0.03774544772244793, -0.028925993412756895, -0.08019765271870205, -0.02127934669549567, 0.03565465547955217, -0.0038318025551095105, 0.04289650086295863, -0.06570553521298496, 0.04101710819250852, 0.01257868700400038, -0.01792524679234125, 0.05406099226256674, 0.012123051550733784, -0.049709947121783386, 0.049592127782316406, -0.012208406709313835, 0.001866077531017262, -0.04360290972042021, -0.0026101158712085143, -0.04778333754995647, -0.008697100024558141, 0.0015495574628745302, 0.030596212814424394, -0.07104448312818114, 0.05065907520189294, 0.05224015195438079, -0.00954538710054642, 0.006518264053122427, 0.015481802116366843, 0.004210787511447563, 0.030477786571291278, -0.019558548864998287, -0.038392282539903184, 0.021625751471462826, -0.07706662279128819, 0.03126646956409498, 0.03649595776447618, -0.03951174159327549, 0.07182622516407089, -0.017736197156141165, -0.02208399486409514, -0.03300780767921918, 0.022632681683627885, -0.019766731425653692, -0.07258622446974415, 0.017254362025100074, -0.014712464577738492, 0.054847551144762315, 0.015595102387352339, 0.013442848459374625, 0.05124034283645557, 0.008082002306726494, 0.0395069936752598, -0.03282223681630453, 0.08313752378021237, 0.013911397716096608, -0.06069664803280487, 0.006962802807239609, 0.009428062766864616, 0.006303128002740492, -0.11616127723382595, -0.027682394214663557, -0.06984451176987329, -0.06911243784614762, 0.00840542743943532, -0.02832670867982271, -0.01837157267108204, -0.045201182885633115, 0.06966577353752194, 0.0020142995859019166, -0.07693286385673652, 0.0325293472316324, -0.017300010733390277, 0.06028888690783294, -0.0004097769771241662, -0.03514837097097071, -0.027377480844901724, -0.020323402822786676, 0.024736424913522386, -0.03965357096001618, 0.0628153591325728, 0.018615580844856903, 0.011334018645892147, 0.003689370920130691, -0.0010152862152452119, -0.06412066490329811, 0.014775167694851672, 0.0972643009798432, 0.034942257891435416, 0.022145366071726423, -0.07752750381563368, 0.05485809042283047, 0.0405324781615928, 0.05896400666600097, -0.04565165824940084, -0.020196358754545285, -0.07504268728392609, -0.07929995935034323, -0.02913877276215556, 0.02362571915598355, -0.021032350902640495, -0.03379703689683579, 0.01714411584703744, -0.16375359996258307, -0.027396022427572504, 0.01708668108201541, -0.02037616274108487, 0.06561974564653687, -0.03340037562692549, -0.029908298107490922, -0.04980292816237163, -0.03826952256632493, 0.01399117857869413, 0.040815530748384635, 0.10883978843516452, 0.029163916709082756, -0.05948991981403558, 0.06271285125877986, 0.024604272642148994, 0.0014492335377196386, 0.05390722324433709, 0.1195997408766863, -0.009545499284515205, -0.042071260849869264, 0.06704533742625492, 0.1341640290135289, 0.007317780771888964, 0.0015612966544890992, 0.008693238788086121, 0.022694593801688288, -0.07113858711824764, 0.015450180935294707, 0.013811627135901249, 0.0109060690672408, 0.0084350148819174, 0.004862741736624523, -0.10613245738541253, -0.03641822190104082, 0.043227376129921335, 0.05507598659190973, -0.02135786875363694, -0.0483117915740527, 0.03621222505906893, 0.013780276801548414, -0.006165442442563858, 0.04353019349082119, -0.05953458454589484, 0.05863731544750893, -0.07586404252679964, -0.04168046905906091, -0.05257319461180098, -0.029418498034319163, 0.015459356183862611, 0.0342655804907407, -0.004118600035502036, -0.06452915154853599, -0.10104004675919052, 0.04274824890826586, 0.036496044275998535, 0.05408729331048054, -0.006689694173185134, 0.03374692972160349, -0.03230193885861435, 0.024273600596300217, -0.02422739464157257, -0.04112595952088368, 0.011717629403798306, 0.009079765924998758, 0.04604333194976072, -0.0648803419869584, 0.04682638177211554, 0.006560545316948597, 0.0539400865182695, 0.05341865048489035, -0.12291229445049139, 0.05296397225937965, 0.055208334713837716, -0.06355445621404732, -0.0788868243341387, 0.03912946821713121, 0.005738234043879078, -0.03244705697079746, 0.07266951490737907, 0.01528060198989399, -0.10535490553934101, -0.0513958433053905, 0.05264600575973443, 0.0018081689024981677, -0.03635203298757809, 0.02285395493200974, -0.030693581971881625, -0.06298796258373562, 0.051351671424461384, 0.058969231392985294, 0.024300989911586666, -0.07750914782406765, 0.09344798147742574, 0.09172376358548712, 0.06429853201952676, 0.015341808450449882, 0.004599951030400756, 0.02208625249948946, -0.0576593207121636, -0.02752596269391017, -0.02961035419092415, 0.030666663909768778, 0.01247872017913267, -0.04840081282667894, -0.0804384164970932, 0.017961616079282882, -0.05370045924429311, -0.0633988002163364, 0.10588803868125105, 0.11665664111419678, -0.02268004299181096, -0.09209658872657286, 0.06115757001833889, 0.016975694450221453, 0.03889173382712205, -0.032059892723124164, -0.052441967924558436, -0.012093053357511646, 0.008802904351577474, -0.036943756844733076, 0.06549071966588925, -0.0877523425039954, 0.020670668352175806, 0.006377230974688315, 0.061559749263890386, -0.048450629489287356, 0.03564974894397728, 0.02409748333829905, 0.012330920538343218, -0.04477838208841822, -0.039048160630112565, -0.014966016368451868, -0.02538811241951218, 0.06364529477622473, 0.006846701266475171, 0.040141444769286314, -0.07329499209764205, -0.093033607696327, -0.008980901855898664, -0.06456098572523221, 0.0020142070833986626, -0.04258323814147122, 0.01546470976883327, -0.03953927620510066, 0.02833745595664972, -0.044497210159310935, -0.09416152010276545, 0.04306800592292071, -0.038826646078039144, 0.06932188683874692, -0.03240086593219518, -0.04155055111592889, -0.014345469760821572, -0.02830374975179547, 0.006372453101642102, 0.02033396673025752, 0.027995349539946052, -0.0043298677568251965, -0.07579990168070005, 0.08704683884433491, -0.018653531555509324, -0.021288104210842193, -0.0044890756693817735, -0.013198201849251565, -0.0883405100191794, 0.029040127746410415, -0.041437542518291605, -0.01635527946619207, 0.08886006540370052, 0.04770382670505393, 0.08142831163263814, -0.034194306021290734, 0.03687238683191993, 0.020367832159763993, -0.002758894977705269, -0.03791086651738155, 0.05478079277789227, -0.025966628925798266, 0.006883329752001663, 0.046119194698051535, -0.04933217715829394, -0.05498436096085519, 0.1270825154877722, -0.0434396528997176, 0.08165746721602726, -0.0026770731255613156, -0.021509954606711207, -0.016498223456515953, -0.00314242810032161, 0.0675748157427879, 0.0381888541803791, -0.010688131716430111, -0.09423858949529132, 0.0010413655092725116, 0.006709228285183535, 0.06356470080383583, -0.0742525882514958, -0.024926202407447067, -0.02652000560009632, -0.002822303301692969, 0.00459841493336648, 0.022143017817902802, -0.09570484477429919, 0.00873669892391075, 0.012407205048705919, 0.003795710119012482, -0.008970973211798253, -0.17272675026906995, 0.028695634287981452, -0.04915428069877352, 0.030997060802309313, 0.06314184838645973, -0.08465599329283868, 0.029459041329949087, -0.06240570964583781, -0.002141392493817705, -0.006361191489551489, 0.0382048809314966, 0.030704654883369206, 0.013238871803471795, -0.08300210421613004, -0.12701718516576105, 0.046077215095528555, 0.03770234232483029, -0.05038036539369328, 0.017543608277177953, -0.01056982387509308, 0.05487611664214632, 0.004221677810433959, 0.04547657426083731, -0.030989743207943964, 0.014395861631059794, -0.02084337760458023, -0.0312368222223362, -0.11767620257296463, 0.04664280160985945, 0.0883728727869914, -0.07010433104239172, 0.035031858320610273, 0.032926886646668596, -0.02599115137825974, -0.03724862302658333, 0.059624485037583816, 0.05430129675669864, 0.0228036842386117, -0.026262425247902503, 0.055025807844075424, -0.04225392301465667, 0.07175301047560967, 0.0824389139501843, 0.059673754729368894, 0.0173144273797982, -0.12866274254489207, -0.00933283803207471, 0.08913990276632901, 0.04732849875649007, 0.02198667926835915, -0.03438786325559312, 0.051740311290013136, -0.07944686041951889, -0.008628518193815658, 0.08787718796788253, -0.0406268334879932, 0.030768707658099224, -0.08874816500319672, -0.03294120090308483, 0.009064241144779706, 0.017860508931710074, 0.10442173550635059, -0.0254584110372283, 0.030023569193637092, 0.02860664365554282, -0.0297413819722422, 0.048282608416665124, 0.033747796855163104, -0.013812589923994166, 0.009833957883037087, -0.048465714336680316, -0.04472891177347273, -0.0010887946239595526, 0.03775314886357131, -0.01684479013040085, -0.03113580349697325, -0.011653197600007433, 0.04185147344445564, -0.0682779848717754, 0.043504695322354195, 0.025858651054170123, -0.06851739512094812, -0.01188298879259059, 0.03212647052178041, -0.09649229562794306, -0.05229165014626456, -0.07691867859061441, -0.029192446508895655, 0.05241337593409335, 0.040318445523854746, -0.025526928869149326, 0.05196936632204952, 0.03350683408165949, 0.06440375019695808, -0.004472243529095111, 0.027227505085768187, 0.17030266877286035, -0.015635819208430133, -0.0032820889127784573, -0.008025768517964186, -0.004571119493314937, 0.028188448840809725, 0.0029349306263130328, -0.06893531276025948, 0.0009116056607498214, -0.02658264523175368, -0.08730338451746213, 0.05783286113468313, -0.02686322349920506, 0.01936293073553188, -0.1593005539993352, 0.025199367159377227, -0.015829784912461342, -0.07853168979358593, -0.02787613323036558, -0.03466470778651861, 0.037914833000792826, 0.004567245328815936, -0.07689731873496322, 0.022147789977653615, -0.10458828344214925, -0.05682479573176691, 0.0007400401342802159, -0.031531814185616486, 0.060190522021764906, 0.008552082502454211, 0.031615700712832755, 0.03367542683238749, -0.022381599437141138, -0.05381186273171614, -0.002522665129162048, 0.043801384881059835, -0.011756523417754475, 0.029847675605618112, -0.0013760320863582887, -0.07844612324305672, -0.07414951110993383, 0.07891682885872718, -0.058968923989642485, -0.03220327780307234, 0.046345144566334755, -0.06023259375299883, -0.034522605162292566, -0.010689779231527693, -0.017288706702561673, -0.049018849325180816, -0.00977412031762765, 0.03429897328797869, -0.006207511351254221, -0.03325766246334076, 0.04778514737046998, 0.08618917448436818, 0.04824189986880749, -0.05673361922056085, -0.05539307091461424, 0.022071655222733896, 0.008639124067655917, -0.06186054626208027, 0.01446709858231057, 0.004993636121558525, 0.0746461541043166, -0.021995904330513415, 0.0700339999505621, 0.07224699378915203, -0.033991730121553, 0.017881499484435584, -0.01068017665089216, -0.012748885009050805, 0.012437097712896087, -0.03989764522940148, -0.0805744581332933, -0.02686753107500272, 0.05964347587474322, -0.01026881992298127, -0.0011739985314389483, 0.040034843940195436, -0.08066894850066363, 0.02217827811598912, 0.08434033803242384, 0.004623014463838877, -0.09712510276123067, -0.003858335106328955, 0.030820620283424218, 0.0056606186666831974, 0.013760926623133784, 0.019829780742440233, -0.04708538559098977, -0.04077246419093889, -0.018669823698684907, 0.019832997339376282, -0.060057773961116744, 0.10386072004678042, -0.1224006674048034, -0.08620261936168994, 0.02796467416352761, 0.023614769009272157, -0.0036553348345426864, 0.03415322203355885, 0.028673277990629287, 4.052216123599607e-06, 0.013547999012474625, -0.15863302017414296, -0.006725946877342514, -0.002408869918638563, 0.09661248318036557, -0.04170295522428902, -0.00181147862075252, 0.07190439337637791, 0.028289965681616756, 0.0012710202146858443, 0.04860454319270686, -0.040038552602379894, 0.08714124361264117, 0.03245092113757384, -0.0821235716606888, -0.030567730239750433, -0.10897186559939714, 0.04019252484406656, 0.028461519137939217, -0.02324743053032147, 0.06062718854718268, -0.004218819572407512, 0.1325009691197865, -0.06058063339200674, 0.032410237933586744, -0.02007182286309343, -0.0341957353208357, -0.008741043572236002, 0.01853640946313165, 0.0029445602034594474, 0.034228149150965795, 0.030656922210034517, 0.07330799871876166, -0.06067055197415119, -0.07865704292055233, -0.0034227004809950353, -0.040083066777900675, 0.044140750920525454, -0.053933411710163685, -0.027760348230155656, -0.016786004137906603, 0.08917273507465252, 0.10645145748334475, -0.05764952448438721, -0.110900496473193, -0.02899035744341322, -0.0018653096931470624, -0.002097113214234104, -0.004252995177115196, 0.041209500590372976, -0.020344727539609943, 0.010775798607870996, 0.032561319007331675, 0.01108228254481104, 0.03412838345972007, -0.0862633416863925, 0.005782424211554068, 0.011606346739200862, -0.008363431798103055, -0.030186167716517748, 0.023293336119529107, 0.006209560799538881, -0.0026563421331898917, -0.016586242006785337, -0.014608887308205322, -0.038657722642504014, -0.02402156649798692, -0.04743990730871257, -0.019555692542061628, 0.0184007580650675, 0.041402490252314156, -0.002586309924397523, -0.003982973729944792, 0.007270638239566552, 0.049666838365121625, -0.011364111490127697, 0.0233809869287264, 0.018716958488040572, -0.03149481507141625, 0.035693230394452186, -0.10466061077837213, 0.05362589293726558, -0.06031200064578113, -0.007021980495157051, 0.04186943102057004, -0.021567928297869007, 0.011827474678703905, 0.042687066578543285, 0.09334919723860051, -0.0007599624365502168, 0.009080865056516705, 0.0020436897984351145, -0.01117547375823185, -0.06796950178904182, -0.05660960503841551, -0.0007213024959506428, 0.017227743883603427, 0.06371165755451892, -0.010592584467097613, 0.07720956446474347, -0.06083682647392233, 0.010614379821714167, -0.013496308199607013, -0.06629302904489809, -0.08551378572208647, -0.021954456129564537, -0.018172756137341553, -0.0448584145255951, 0.03846859756562007, -0.02049052180207565, -0.04983456125326669, -0.01192158776649935, -0.03188396926014748, 0.08318476817126141, -0.01592254782397782, -0.04635277292033774, 0.0830904488588723, 0.0366199149873258, 0.00536932252069571, -0.04021786130974472, 0.038715999334018814, -0.07391365618855775, 0.035015542928213995, 0.012633122422281371, 0.050005578069991764, -0.11922060240799766, -0.046498144615772515, -0.05049389279954083, -0.056463960499688735, 0.021466616268558, -0.014914488668269688, -0.04400869346744919, -0.05571227609679398, -0.04854648903919903, 0.04372875169673614, -0.003368455710731011, 0.04199059361203657, 0.13458634390113836, -0.0009020551009884206, -0.07157055714293704, -0.0069210306355501254, 0.09490841564530184, 0.05488879127006478, -0.032629605060123766, -0.015356156777999161, 0.03914412355095185, 0.024221726817100896, 0.03968259940443001, -0.012073481774194532, 0.019627210929107495, -0.01541800850983861, 0.07037892022843388, -0.07708952120672774, -0.07693378191973735, -0.03609520086587242, -0.03426281211478132], [-0.07710170349191774, -0.08619372015875243, 0.05396750004012566, -0.00843484346547443, -0.012256639174912515, 0.0028434125242491233, 0.08071871920057176, 0.005874104477004443, -0.005618479106869444, -0.03220323886783121, 0.03025220234750876, -0.0032509562313427563, 0.0834445869748575, -0.008119408966709001, 0.05089395983449034, -0.03591427326169644, -0.03640804082474667, -0.0922670304944298, 0.040126724876725375, -0.0019310049239757098, 0.03230280610019373, 0.08566986999931504, -0.0427631943165108, -0.05040491540392156, -0.039756098550941255, -0.10624235763500789, -0.009758578704548812, 0.04465882464590989, 0.002476748263166407, -0.07934311728557097, -0.018025396852257042, 0.006322086578826629, 0.04861414941541449, 0.04022773677153843, -0.017449392191737065, -0.01753866461885427, 0.03000812893581095, -0.02996632125786662, 0.04320242482758538, -0.033284312240827146, 0.07834428009962213, 0.01188305853543923, -0.09897705588511184, 0.03234709881593984, 0.01287141029634609, 0.024554467094482273, 0.11373761833303653, -0.013196455593127692, -0.07841144725485329, 0.06402031976275929, -0.08988144632945967, -0.03769882343559395, 0.0021261368655561604, -0.045393723871923204, -0.003221096522036623, -0.006858907024215381, 0.07757068450265465, -0.12231612793187434, 0.004412046734467501, -0.046504390998601805, -0.028411425677991736, 0.034349868041494626, 0.026163923477540894, 0.0173148013523982, -0.06352805826957444, 0.05991125593110286, -0.04423209147715112, 0.07002327543955629, -0.03280020988382032, 0.052064869883705456, 0.0051383103612295394, -0.0845515359862668, -0.01795534269185822, 0.08598131730879952, 0.04159065478789203, -0.021975570329168748, 0.0658446300922081, 0.014237092907852054, 0.0829747278679003, -0.004001191694271894, -0.014740619277304388, 0.049910065920557314, 0.012727897320711215, 0.028158965473643598, -0.04356742277578487, 0.05915474864951359, 0.049613010051881165, 0.0682636871636233, -0.06867879620603332, -0.05872631252153817, -0.03772261004319314, -0.012088672958255125, -0.06732407730789083, 0.03218758161061705, -0.022136620349362035, 0.0634361018309066, 0.10601124061924541, -0.03000413245155791, -0.038754229138082116, 0.03774336774415453, 0.004897986497767104, 0.018671308581784497, 0.06714456622587107, -0.013721929573628385, -0.05382819300016271, -0.06214823333876474, -0.008956263673520929, -0.017771760233648255, 0.04368319421750518, 0.07033093495105905, 0.07013220623834272, -0.03540996440390852, -0.04056985955851462, -0.09159212514301436, 0.00015287612069311897, 0.04468525449140559, -0.03569248650586152, -0.07475882604704925, 0.09524873621205406, -0.035615800481156604, -0.005674996653205029, -0.023558249423041182, -0.06734739893420504, 0.04555186942547459, -0.08833587453140195, 0.056788429478023435, 0.013538542499488734, -0.013570733956330282, -0.012726389940102993, 0.02294427660987288, -0.032467384368364494, 0.00892739392877497, -0.04485898786056362, -0.10864291725539747, 0.031162701683078907, 0.12309548589926109, 0.02859014669168866, -0.002395181821427173, -0.020031595862046225, -0.018448508775336974, -0.020035657943589708, 0.01005055881266217, -0.12053034757001906, -0.12931047614318886, 0.022788793174096253, -0.010057745117147373, -0.049788374136204266, -0.05117653961340295, -0.028168574134111234, -0.02112969605603399, 0.07188978239278165, -0.05404590482934239, 0.038585297138836974, 0.029812897454986945, -0.010577864480310192, 0.03863757932411277, 0.022307770594568472, -0.06344650135852474, -0.029967786651909245, 0.01958548111295582, -0.030203230575588193, 0.03084737533353788, 0.058716411713368596, -0.0013708374600872213, -0.030601177465605357, -0.03634642755988295, -0.018401160026518617, -0.021931686190356098, 0.04363997423667021, -0.029621275965925085, -0.008877118025314053, 0.039381230102239616, -0.016666861437304795, -0.02243596147683612, 0.044009072676335595, 0.05858912544329904, 0.001937942153271519, 0.08387806093932416, 0.00837177113144223, 0.044261528891105614, 0.09874280144671292, -0.03175254109892356, -0.026330923037995342, 0.04037665079664674, -0.008110781407892682, -0.04752423008285702, -0.017636015984920914, -0.07145637348777556, 0.0012434065693781324, 0.008237389054346093, 0.05479764622267238, 0.059624181305191905, -0.016022819964247106, 0.10644952850024117, -0.054238281079585116, -0.0707138081322651, -0.06273814861239145, -0.05915862516782123, 0.03828865698775199, 0.08496194791021464, 0.08703678963119427, -0.09518658928527439, 0.04327603867318983, 0.07712851519207724, 0.05040337664158023, -0.0319899850932869, 0.008505530864789569, -0.048058701881389346, 0.03775072995389945, -0.07392247127638228, 0.0346169902377741, -0.03586417809671098, 0.018344609338821934, -0.012803125663315783, -0.018199844471149702, 0.04781925808821254, 0.07709894815934534, -0.04368726834753969, 0.009426744578388485, -0.05487411761940063, -0.02325886935308087, -0.03671062931622282, -0.06359700420089039, 0.0535001615542171, 0.005225111905855261, -0.027610382250760998, -0.0029393677734296845, 0.06042345268854625, 0.05190432107598847, 0.02819883740036263, -0.03380839608138438, 0.006027397346545544, -0.05510303819650586, -0.004408176320720152, 0.04939402406528483, 0.05875109612223591, -0.0324662260501386, 0.04205367012924957, 0.0316787041566652, -0.01215235819324422, 0.03768461007547917, 0.06193644560042422, 0.04296474382473582, -0.05321909259500489, -0.01404869283687031, 0.020183790180343636, -0.04058265794065839, 0.07868844660290379, 0.01583160379954684, -0.022908630438549505, -0.02606519432145917, -0.035111345324195374, 0.035650441034863915, 0.04165899516089116, -0.03353057256087988, 0.07420920584561749, -0.019544105436801587, -0.040250110173019535, 0.02410424098208999, -0.060589509006109654, -0.06894830410268699, -0.048146068451319524, -0.03966148984066677, 0.03785547170387355, -0.06546963815988897, 0.01862652061134501, 0.04250418287393437, 0.07296779921669137, -0.024842872994615486, -0.020842220913679686, 0.10285618589647569, 0.06834433726830501, -0.013870100433828138, 0.057915533623236384, 0.012499237286221846, 0.0008238975547014953, 0.12542321440872298, 0.054285472903695356, 0.0952982825806254, -0.05364904150986369, 0.0907932033530127, -0.00789705386149061, -0.008548858971603112, 0.019689455324511575, 0.025878563867482548, 0.05329085138673016, 0.044622940484395246, -0.03299297614496954, -0.050329865547679015, -0.009661111851054791, -0.0006778117139771063, 0.004498007969196015, 0.06903916319582573, 0.009315290871987337, 0.13319433797208957, 0.07302477047046675, -0.015223664700258292, -0.08967639546863293, 0.12061617233006564, -0.014265803627799502, 0.04691234374786385, -0.033699324947844944, 0.08074367192864154, 0.04281893919811032, -0.05490709346437064, -0.0987369233034814, 0.009530777253707753, 0.025108738402282588, 0.03852327811999995, -0.03928388349298935, -0.032515237906532615, -0.09545273643470353, -0.027886273750354972, -0.0823866338969896, -0.03599081740318285, 0.01657409760829562, 0.01584657469912013, -0.03404319246279728, 0.013742296222256553, 0.07465192742554282, -0.014050534015352641, -0.06460008903491468, 0.03967910715100411, 0.05515534996623164, -0.03517607068529955, -0.03480188275997368, -0.10017003911845836, -0.02327607023897414, -0.04660461538861354, -0.07691842801842567, -0.018424064128486843, -0.00024920082956139905, -0.00948648960593172, -0.016358691321571896, 0.07699151258859863, 0.015527047732898064, 0.03286674375417601, 0.09145099324805012, 0.049846010926286044, -0.013818745523932153, -0.09359087681395013, -0.018754548275879326, 0.07351229528655281, 0.04948973959798735, -0.018555276507594837, -0.003992552409909951, 0.006455811026069506, -0.03111120602766957, -0.028088442944848212, -0.032773782900496415, 0.02486680492530506, -0.0533297561501043, 0.07282559237556464, -0.0003142151914166406, -0.055851093336681805, 0.05182114113776662, 0.07577616712038159, 0.1586499769488178, 0.06923452826137612, -0.04420335307251352, 0.010609939000525226, 0.12771976454938225, -0.039302950359846316, -0.06414386734036107, -0.019696545673233843, -0.05125066536685177, -0.030686687283665998, -0.03339525197529061, 0.03616579142156552, -0.06548809740859116, 0.006609808168661817, -0.038635560714646716, 0.02777847317567489, 0.03327764698135643, 0.0450837374310438, 0.04507461420399515, -0.0313705370140711, -0.00021999426187782313, 0.07422853041441142, 0.022319370401045344, 0.04482048409429339, -0.06146911642762533, 0.048164422712655953, -0.09526201891814046, -0.07722646874850833, -0.0454272632552064, 0.021495885013341667, 0.03014004533053382, -0.04111657678230298, -0.09721220949680351, 0.0481586910052185, 0.029677966618545805, 0.021607158344567716, 0.09731094643458549, 0.007577088897994381, -0.050098723706526904, 0.06711285355396097, -0.020580462730746842, -0.0053123627753691996, -0.027094667071334795, -0.0420411887587924, -0.02129203264158766, 0.07680341720499308, -0.05386714762520102, 0.05401855579828936, -0.0933918350160576, 0.08086085023664087, 0.08615249262751976, -0.05170766684169556, 0.0039868875017852225, 0.032519432725653566, -0.03051202298320545, 0.09509280609412633, 0.001091542123762295, -0.026270204774338245, 0.003981112193468358, -0.03718514565069936, 0.0010570843524445967, -0.022717029155041257, -0.03934698342681176, 0.04027815285429103, -0.08548046767883416, 0.08903433963080089, 0.01163641033625682, 0.09329480983745701, 0.0485887258772797, -0.06785419945514037, 0.0035720127063839434, -0.0906709402584028, -0.04563781496734942, -0.006909825317143143, -0.0356127287907328, -0.024064976928474625, -0.03369292698300647, 0.11258484835149665, 0.006003084561495868, 0.03148968354755769, -0.0026157777022788277, 0.01704043911082832, -0.10381194430065846, 0.08438347176736462, -0.036456491823279015, 0.05787174542229438, 0.05983603579191984, -0.09082912300103281, 0.0028325887666058214, 0.020472409279167894, 0.005545764658573013, -4.748632137998677e-05, -0.022011595309887617, -0.03605446751689648, 0.053439101776291284, 0.020089870582256843, 0.00936015726481315, -0.0808686401648739, -0.012964597768345186, -0.002819417198207733, 0.04246582681077053, -0.08806273530166293, -0.05534649291302598, 0.09084964839847566, -0.04027392159431313, -0.09351771497360259, -0.035262977199595424, -0.04009373453283335, 0.03288688285875091, 0.03226636847794851, -0.04896016495055027, -0.01913849625474853, 0.02711941852968456, 0.028811963529737857, -0.052254777631741224, -0.04667324319862699, 0.10689092510669046, -0.013117682049852836, 0.07543053768408033, 0.011546598799686088, 0.05530711133400915, 0.031581714050324325, 0.008636577673170878, 0.008038889985918292, -0.06266506047630176, -0.008418361197916788, -0.02636718148091189, -0.016558127069136452, -0.01866592256672168, 0.008202398344339834, 0.03222152176855417, -0.00694605589638088, 0.048228774899022366, -0.02098333515627417, 0.004378839578096233, 0.12744946251405587, -0.060679456200507985, -0.021283480762285086, -0.09164055833143343, 0.011538329711296366, 0.0008352628147919152, 0.006349795835356219, -0.04604050271937866, -0.038471823682286466, 0.0027303155996166594, -0.07085244461870904, 0.044522907144678346, -0.07025029121285921, -0.0076244032567060836, -0.02201081513732484, -0.025256242235403625, -0.08110143653228288, -0.002232221706179482, -0.0610159727609323, 0.007080773751482425, -0.03835979239148511, -0.002539040455800465, -0.09148686358860658, 0.046077007100751445, 0.05537358325490426, -0.027884419909725205, 0.14149259109465367, 0.03842194163674916, -0.013042031692334883, -0.024796755711767714, -0.039463426341882706, -0.029836802653420195, -0.005549242897354284, -0.002210169853359376, -0.07091429718352038, 0.06842491674027255, 0.03973795863873606, 0.09329968077660585, 0.018581276316716893, 0.052867512886532395, -0.06314614535001048, 0.030417950620083404, -0.09049254355823828, -0.04907386844884352, 0.12659988750448287, -0.017672084594822588, -0.0009665382884401244, 0.03545337321316324, -0.0019590738396280767, -0.05159010460631046, -0.05034302550102121, 0.040480511860119556, 0.01506492171603846, 0.042243596677853136, 0.029667263938667875, 0.0030537422283245146, 0.0006665591890564722, 0.004887198662982517, -0.018368076004627452, -0.017781983675455717, 0.02535449706720867, 0.07276647451190116, -0.08464153075426095, 0.12058677428302458, 0.03498297203950661, 0.021996331305749545, -0.05092737676256393, -0.03595652770663039, 0.030874646365986413, 0.012670432228041251, -0.06525290400673027, -0.04354247611948702, -0.037360609216216235, -0.04167879964772076, 0.01371086043981557, -0.051720083221167584, 0.03934409262489399, -0.07502063895241706, 0.049304921318608225, 0.154538503765926, 0.039332955405267926, -0.02747276760245706, -0.02526557261645331, -0.05674606268503958, 0.05446675687048782, 0.008233799515865682, -0.09138953746619251, -0.073408864343318, -0.08874866746330612, 0.03850880636240478, -0.05059990556013491, 0.04211689569867509, -0.028193519307998884, 0.04002709948532584, -0.012998743398396878, 0.04797417839581697, -0.04000969889876301, -0.037103381208775016, -0.022997814125965615, 0.042111162173192086, -0.05466065471200784, -0.029122275231772757, -0.012623909812891068, 0.02015583571938214, -0.020011887465714286, 0.029174757350988734, -0.037770537876282824, 0.04995253448872458, 0.03820967257069593, -0.02893384848113873, 0.03639548772389163, -0.05513364157691367, 0.008170321883915161, -0.03988494571226406, 0.015824762110155564, -0.008577080691560489, -0.038340274970252386, -0.07937242900133115, -0.010917679394950561, 0.06025759671795096, 0.014355816234228862, -0.07898536716313309, -0.011797472826530587, 0.060025344981977743, -0.0156493817726764, -0.04913965013347356, 0.08825211652380087, -0.054583348917237144, -0.011427677418319595, -0.031065092455833245, 0.0329740730764296, 0.024316238607607173, -0.045221174459388676, -0.035338533569897454, 0.00701521499748267, 0.011022875245767484, -0.011556223469788586, -0.015524031661092126, -0.06205474393859151, 0.09345217259162815, 0.03224385797898101, 0.00029808451451703293, 0.04930560735350493, -0.010303967637248711, -0.04113475669506653, 0.017474986609086748, 0.007020877723725817, 0.08494471397378309, -0.0372275828905912, -0.04862880484763535, 0.10612870277344548, 0.05982759966772658, 0.032158112156409784, -0.03452528090040898, 0.021098167805508494, -0.06518326347271511, -0.025930824703281556, -0.05876376802489187, -0.03803430852272385, -0.060173391572051455, 0.03514842039652688, 0.09027839620338446, 0.049310581474944416, 0.03783766326409273, -0.016980028354921843, 0.009706698486408791, -0.054156187430818, -0.06561841868061186, -0.07338192505535533, -0.06162625244634333, 0.03470764976831274, 0.04024277488879641, -0.045534047614698654, 0.014828540033576447, 0.0576775129024908, -0.007672618564552144, -0.03754534994249637, -0.021040449709986007, 0.07227027548805676, -0.0035123117862724575, 0.10787028888179503, -0.03371725046634161, -0.02556384236230806, -0.07098021303919708, 0.05416381336593877, 0.004759590211288102, -0.045468002641217524, -0.01811338191185557, 0.024519338765118803, -0.041760634746852036, 0.01728709673748278, 0.045430159211581375, -0.02189746495697272, -0.0940221133992214, -0.01365909652244077, -0.025448149919971418, -0.06290121368108191, 0.029636288341892938, 0.03160072343802733, 0.011021065944525626, -0.021894313070965305, 0.006824665637041377, -0.03283453884648207, 0.034585232831092536, -0.022101440275351138, -0.012732848746478311, -0.008525862011765866, 0.1650195387326546, -0.05150080289352397, -0.02376068257031811, -0.08092126256532206, 0.01283846199301165, 0.08743630821316428, -0.011569814657226729, -0.03243768991016236, -0.003070517276785072, 0.0522610875933743, 0.0697740834315114, -0.05288619137651887, 0.03324272479228546, -0.005132798208646763, 0.07285789613496954, 0.11592567170983378, 0.0919533733034339, -0.049812981717064844, -0.04250202703410617, 0.08558168561886162, -0.005250791093626642, -0.03886205112280234, -0.06882582212434027, 0.007055780648988411, -0.020809259917907493, 0.019714677684711527, 0.009605713562799283, -0.061397443231055976, -0.041290151928398605, 0.047711109261809326, 0.052160500642467814, -0.01876024792215543, 0.008891851977275503, -0.05256541020824381, -0.0027113334618054587, 0.05582783246057464, 0.0842621605617666, -0.006344766146177298, -0.015869358990974868, -0.07255156677017946, -0.030227365972705398, -0.00345902909763242, -0.008807652288283957, -0.02866269079427164, 0.05995684054488349, 0.020910782945775815, -0.00836095183707089, 0.03453043758882759, -0.0013134638769146212, 0.07840695791798834, -0.040148726454624764, 0.01657743857924736, -0.10735804773217003, -0.019784481512700552, 0.007672033182374741, -0.01621690437093414, -0.05582212086140651, -0.035065637304437666, -0.05083369880720567, -0.0060296359890406395, 0.03965348921223265, -0.017513973666244027, 0.09136455187870639, 0.011548876874082802, -0.10346833809710482, 0.016827368874935755, -0.002545391147106707, 0.06956890227827103, -0.0008572411533699344, -0.0127863682425775, 0.10469935641158237, -0.10635414617463947, -0.017388204459033402, 0.013420143791793756, -0.020172005167126552, -0.10610667181815435, 0.02040947782766203, -0.023132028939238585, -0.006881179047994521, 0.06358188570989617, 0.01537767968527213, -0.031316459624576416, 0.019879291544730372, -0.021438583432457182, -0.01533225067594299], [0.03825077374931803, -0.03241210890311709, 0.028363403308403215, -0.011621957235633347, -0.0256550728685607, -0.02547952814167248, -0.03101098554583152, 0.0045085098025575525, -0.013876463920582791, 0.06917070775718931, -0.04480674158000935, 0.02743155592247242, 0.05774427934746699, 0.08738455884691242, -0.04100078703123531, 0.05173928639124079, 0.010399556144973407, 0.053146216937410326, -0.03256070067412873, -0.0058720028077701766, -0.01836867811977339, -0.022769358073204828, 0.002077809980494746, 0.1260113821749972, 0.033783569999527786, -0.01773437653243253, -0.01474609774344013, 0.028413160996221938, -0.009402434440210338, -0.009223962998855525, -0.05602215423645717, -0.0023769492470329416, -0.12753210175578666, -0.08931813209280644, -0.01769324640296206, 0.03334889501441309, 0.08138595977059641, 0.020272120370396253, 0.02698283351674719, 0.005699705396971604, 0.04234625657393899, 0.010777497020166638, 0.018819782396072814, -0.07897554396295263, 0.013281556356392528, 0.001175130502749699, -0.021018282279782516, -0.01729987607080879, -0.06736964496613798, 0.027227992404261745, 0.011868797432699568, 0.003495544446064473, 0.011616807513608841, -0.06294334282544417, 0.08906125413664774, 0.047633224774363894, 0.031345791866223535, 0.07497945669488995, 0.010663030744128802, -0.014267709584293619, 0.013830146488272719, 0.07712181540740443, -0.04517827653189008, 0.07651866334929072, -0.06829732355426615, 0.02692464331709926, 0.051023404908378395, 0.032548857634755776, 0.05290945573701459, -0.006440167853494461, -0.06430283529487152, 0.05304587226125611, 0.09336916730384802, -0.008315741540300323, 0.03444313159466608, -0.04173902070888151, -0.045548842183465464, 0.005421968790755376, -0.036752307069162535, 0.0048598539149887375, 0.15305417932682458, -0.03565242692185194, 0.017251148498901324, -0.08881392201861502, 0.026430619602026268, -0.03562855839300924, 0.014780495777990612, 0.013429576188777836, 0.0070261827199697355, -0.04785314821477684, -0.014336104644664864, 0.011905547374985307, -0.012255047707282224, 0.07087773638572632, 0.0020716361628941625, -0.050147526360305256, 0.021790627828866118, -0.12359147269756073, 0.09907317170240376, -0.08691270457041657, 0.04527811398007934, 0.03741544381886832, -0.05710087536890457, 0.028256929891341816, -0.0348240860386478, -0.00835540433191613, 0.023758700748056208, -0.0024411507984827777, -0.050510282676002, 0.020727033862610923, -0.010511257281707978, -0.005586569894493764, -0.0026013105101043757, -0.06794833527877661, -0.05678450032738383, -0.02975889008273947, 0.020724799051518035, -0.0469284580340844, 0.060066713695646416, 0.010185663251641929, 0.018403885431859127, -0.016751784983028952, -0.08061277734953562, 0.026865950106547236, -0.03647677410543817, -0.0753519461454742, -0.04216184182562117, -0.004026659780951827, -0.12012025038213792, -0.016976653867421247, 0.050928047819974884, 0.0016149301964418522, 0.0605775644495113, -0.020362344997366024, 0.058242914604828465, -0.06776310231648798, 0.0302982841266723, -0.0054685476070056435, 0.06843118695856247, -0.02082903174929473, -0.053163655339002865, 0.025591348401734625, 0.08319546603573708, 0.011928889977228484, -0.0021264054112393777, -0.06136468282927208, 0.04782590935958889, -0.002606536128648628, 0.035396251201720436, 0.009961454201304135, 0.10303599856197894, -0.02815374190937474, -0.026305925839781686, 0.05118547601809512, 0.05242450439504144, 0.054023387079367303, -0.0006400299255603919, 0.01048827333141975, -0.06805167062704649, -0.008125099227883358, 0.013980331376368503, 0.014007609410672285, -0.038271645199907126, -0.05552527779576834, 0.05273964778624913, 0.04481802048756275, -0.01173141004798878, 0.05214752316883478, 0.04745082075884886, -0.08477148101156382, -0.005248395735772698, 0.06761216777670918, -0.08031985037757787, -0.07327189235941539, 0.031648877202534946, 0.0652732548296361, -0.014137616120411542, -0.023708187245988253, -0.08581808147433555, -0.015066061469317125, -0.07434532925532608, -0.0179122988242649, 0.0662042215732337, -0.06537941772269905, -0.012742435168239646, 0.04348669443280345, -0.03920572738575698, 0.02060175071562878, 0.04092100714794926, 0.003960863236321849, 0.004997869425543422, -0.05545493014309128, -0.020165797649951422, 0.008191911178268214, -0.09604369351795879, -0.1134605009724866, -0.0077374897646233405, 0.019133037425468524, 0.004450235182590321, -0.08188146706898465, 0.055737442899399456, 0.0052296310051395695, 0.049027451460387235, -0.032256762550819315, 0.01338488851156123, 0.02628356325011618, 0.050736031546209835, 0.04646583731332921, -0.04040815645661212, -0.005847753454721862, -0.026426123201210166, 0.007220653726395795, -0.07260798282978753, -0.08030222822490542, 0.12049326124549872, 0.09774970223427097, 0.05888748007912823, 0.024456861795454816, 0.03916692851327534, 0.03930427160813218, 0.0835743613089976, -0.02487560697383439, -0.0382658368467783, -0.0007673761274155705, 0.030078484286758588, -0.012871477603662002, -0.02791248354114633, 0.07259137680060945, -0.042279104876235735, 0.07417835067167956, 0.04864744232041983, 0.09656815396224983, 0.1102634457130449, 0.01869959885414847, 0.10497896152696039, 0.025518206622721664, 0.02000936378900646, 0.009788437513907967, -0.021942056819020814, 0.03836923457139342, 0.05811470909865467, -0.07062809301873982, 0.1292915867933837, 0.08205009142104282, -0.029405078533067536, 0.028402617369330432, -0.002180963554946641, 0.01681099003968235, -0.006865684892105225, 0.026423449972022707, -0.05399842274486119, 0.11061546237735607, -0.05017037798260942, 0.027899568931872395, -0.034276463619792315, -0.007891458537608947, 0.023297158148124025, 0.004939646917396217, 0.006534472110328999, -0.018588365324450906, -0.03492743820289189, 0.033491632151112165, -0.04314785676127914, -0.03281078186975016, -0.03221814827899897, -0.016739414624572114, -0.07173384672707768, -0.07095741840724565, 0.02742876698913727, 0.028003770069460376, 0.015691893071197095, 0.0694575648364803, -0.04455875061867546, -0.08713985411380254, 0.039664000140566, -0.08823637873367975, -0.006913843323967847, 0.014051386707447822, 0.1040856669773641, -0.027611015776043735, -0.023893425020189176, 0.033389033673497694, 0.030405538684403176, -0.017344237309320908, 0.00935163682711733, -0.03722487188798516, 0.022560069228292543, -0.08049264812466145, 0.14686687821082706, 0.036419307401348744, -0.05563943218529551, -0.013531762019563994, -0.05319272041901631, -0.04134811778103922, 0.01069071062905468, 0.07028599019461754, -0.00510990979495598, -0.09548206594921782, -0.031006655715295716, -0.02768438052124547, 0.0044914074446716305, -0.007121361515425894, -0.1110952807983207, -0.046716604944624256, -0.05593665170800644, 0.04532706522834242, -0.014395361935418995, -0.10094510298330839, -0.04386085249697042, 0.05933076940681289, -0.030260452850239792, -0.034313393611325134, -0.008601311658417802, 0.011394746012334634, -0.007208509465452948, 0.05167690040454267, -0.007205264160151032, 0.034055517564107685, 0.009934220373329335, -0.06530641216829594, 0.09017130558253075, 0.058370798993319636, -0.028626656079078168, -0.005612672857074759, 0.03107192974426352, 0.009092744475845937, 0.005407242530357602, 0.025536678353097683, 0.017852674481492546, 0.01808256169201214, 0.004614090966489274, 0.032269309272776076, 0.010590755423991124, 0.011859785942112183, 0.06944117861053264, 0.0218923273791232, 0.01669536434094941, -0.04489062550479033, -0.04234646798266999, 0.057664769075528366, 0.028821819059376065, 0.0463438397693202, 0.009983803455720346, 0.02007611579026032, -0.007361536657299935, -0.0013499116033003108, -0.021050672578681387, 0.0673632538426366, -0.03595176512298114, 0.015533239414236993, -0.00791153366368663, 0.04807360332210112, 0.01149755239307427, 0.02330928178346451, 0.010484310380110764, -0.050112081362852876, 0.02779750092080346, -0.005010147376242672, -0.03845613900158962, -0.07125873088920774, -0.041278530816148025, 0.038592325236957714, 0.08898806698506216, 0.005979934462800635, -0.05034243247936857, 0.021030339030733047, 0.05441607999609955, 0.0970369250599676, 0.0638474555348585, 0.011327332506163194, 0.029045811257446805, -0.03649736824668966, 0.040252052955391956, 0.04717279591750753, -0.12613052322786755, 0.007206370645203222, 0.0752607968582888, -0.0339024184626894, -0.10735296204650066, -0.0013975392248085623, 0.05434828093022051, 0.020233928225746878, 0.0013605637360697418, -0.046752010641915996, -0.05546970027734168, 0.009231354855172505, -0.0029561898233853353, 0.043058120471135095, 0.022253722053702945, -0.037530394112013025, 0.01293666254253349, 0.004566999600738093, -0.08405063927705764, -0.021169272403507744, 0.0030337088202448442, -0.005725983748617978, 0.01594730100452541, 0.003957299480164177, 0.017207267996507077, 0.00842821865756702, -0.0011731869241152903, 0.008058167313485892, -0.01826032323905989, -0.020995372038669004, 0.004969936870625292, -0.10147114560761435, -0.018730188345429718, -0.03566707999830623, -0.04190694012477472, -0.01592126331444127, -0.06769704992272582, -0.015680093199042636, 0.011683732141105919, 0.0530542418486027, 0.11107501654095585, -0.09235575072153171, -0.04716975783230713, -0.015693042964213397, 0.0069836896167176435, 0.01841195509283263, -0.030815841824969176, -0.12766703824472458, 0.052255411049778835, 0.025388439430067643, 0.03602372235888736, -0.010841559895609766, 0.01773635978721751, -0.10099789294433069, -0.05406200771915163, 0.0603191077952247, 0.0015613868471513108, 0.09441296242670827, -0.04923007630358992, 0.128902894386314, 0.1361371542952649, -0.03257339854203752, -0.02295235677068739, 0.06323564590711558, -0.02842454052608084, -0.013415191632954715, -0.037032416769110496, -0.035672472631116746, 0.005958185694664243, -0.013819743527351689, -0.10552541179847277, 0.07278595892837478, 0.08077911666162797, 0.025879904497901913, 0.006351969571747873, -0.04726791488086378, -0.023327665761091004, 0.05501084406708946, 0.030199513238924575, 0.022995182395223655, 0.02514174757738094, 0.053663965247807796, 0.04608775156659873, 0.03482024463608291, -0.017589190004384626, 0.08507390846235355, -0.024492092486505537, -0.043879054587179604, -0.028475548685312303, -0.06016573843605859, 0.02947503479836311, -0.0006850431606351503, 0.05700544502929412, -0.1235607016143677, 0.010651808899596644, -0.012974086518310059, -0.017455654499685173, -0.052561897325748674, 0.0022034426314539927, -0.0386237499839321, 0.07675513085023676, 0.031671607747971287, 0.04956967801907307, -0.08790136417189898, 0.044731540996241374, 0.03997086408732009, -0.020522192093514816, -0.009416565207600829, -0.04963644828306028, -0.015534192829277193, 0.02851790117189334, -0.033806865691669366, 0.0018241286047271947, 0.12857348844962052, -0.0494367608080428, 0.016775418231446036, -0.05221553228810049, -0.07502834295442622, 0.04037047197457873, -0.020550157479509633, 0.08078081459067894, 0.028681432152843744, -0.03968900089071141, -0.04429301512077349, 0.03639620075424398, -0.0531798550941744, -0.054596511383160434, -0.08683305759020077, 0.0314858848237823, -0.04089214261987185, 0.01816841323299776, -0.06577331994885668, -0.08274806550236677, 0.03635388357818762, -0.0080061157404964, -0.0342544151204785, -0.024569643850152485, -0.024389595033541312, 0.10274607867170372, 0.013406323140698582, 0.007020181723609507, -0.03805682153102881, 0.03973998188860989, -0.058199970809665276, 0.0261975433403744, 0.02647078784027139, 0.051393466927212514, -0.09942483136431302, 0.05693443704504193, 0.017870042396299614, -0.038098734882784, -0.10905654213754465, -0.020518291628625212, 0.009436279107595152, -0.07677915552653407, -0.042982071992385414, -0.063814379630695, -0.021958876654113026, -0.05496593848685079, 0.10961451725316045, 0.04362273403579255, -0.05583962649594303, -0.04848422170499136, -0.0747967432992879, -0.007592768743704318, 0.0896593321943829, 0.06047542200924031, 0.010001862424467187, -0.014858429331307241, 0.027852012248480138, 0.014132854533781285, 0.02186732361290116, 0.009968763240187256, 0.0224663460730423, -0.07175119471319918, -0.006077618784874062, 0.011794538922117055, -0.02197353071217792, -0.0630215138732642, 0.0002639115019442936, 0.20950033698151257, -0.04157282844824222, -0.007185216598285281, 0.06370958650717848, 0.0895563030196803, -0.029460573813572786, 0.04872043069516951, 0.039964257507038796, -0.02557341150634729, 0.031565194766836155, -0.008741433324920458, -0.03165700227269951, 0.08682591960084153, 0.032796209009279445, -0.0849437172608326, -0.006450906891471199, -0.026238132262426897, -0.010639283552446192, 0.026059755171583817, 0.014819206053488902, 0.07243174561193107, 0.061712763624057386, -0.06131110116718712, -0.004965595865957481, -0.09832764505108219, -0.05034030102885606, -0.10584309597015897, -0.07919571822605184, 0.07071588362239231, 0.03801752114719899, 0.031166232334186254, 0.05936351907266921, 0.030946324568226307, -0.004281711850702357, -0.029766127558121865, 0.08564318804586896, 0.06598243515376587, -0.011084517918648628, 0.038580915265813816, -0.14096350909082905, 0.04112495737345645, -0.025293679273718, 0.13700122905581893, 0.058115230930537436, -0.0996355842737328, -0.03592607002197014, 0.003059783566081232, -0.0021434758680338437, -0.0044247574932557735, 0.04973646306006226, -0.02731340038586066, -0.0036532813273157253, 0.07707828073065347, 0.07789384372745958, 0.04938323832825815, -0.017663886049971357, -0.03572530559070572, -0.002085654953555038, 0.0014370296746151244, -0.0017843576696244298, 0.028097169464791502, 0.018216399788039992, 0.01610725061375403, -0.02357413210009311, -0.060555472185364737, 0.03508472516004996, 0.0030653636130848053, 0.020648041983319675, 0.022057808892326666, -0.10236951995803127, 0.08694944422344568, -0.02854198188476481, 0.0693946801841306, 0.021448379744204094, -0.05447605483603786, -0.035741145145051695, -0.034805953226664826, -0.031901122136578794, -0.08936596170475479, -0.04032841682300682, 0.048860161411859164, 0.05403081713085832, -0.034156179736381985, -0.09459411347883444, 0.03186619311639748, -0.05448450043643016, -0.05054265499014638, -0.014285270017177816, -0.01901454925324011, -0.039888595923564446, -0.03532487144346396, -0.025351783486852915, -0.03606182529357304, -0.03288485537472676, -0.015441694615631432, 0.017847239516708382, 0.012579062464066147, -0.027383748186049068, -0.015995428845214855, 0.06789988236945525, 0.0498325306691835, 0.027689194703158553, -0.08946576817300071, 0.005406868256350108, -0.03411650541639587, -0.04831111679136274, -0.01816700440290223, 0.052885276899154225, 0.0448647985247285, -0.031290190221467985, 0.004273971725501976, -0.021291997018776394, -0.012125190187566933, 0.05038418112604422, -0.00318980906157626, -0.08875131851042191, 0.007004883872868676, 0.09174047886567831, -0.035355275407283705, 0.07821321098146135, 0.031186682980338436, 0.05941011889267062, 0.04421650094146097, 0.008979989917161996, -0.030973523498726552, 0.008872893676103773, 0.011777467056353243, 0.04907117079038127, -0.11369318688823987, -0.07221935306655261, 0.01193512018792427, 0.016805427611260623, -0.043801507751701683, 0.018045259685020458, 0.03426213732363482, -0.009834284550973486, 0.07220346705363385, 0.08164277230211132, 0.0061510601991709955, 0.042470470215088096, -0.08567920885775697, 0.0542134384575935, 0.0740434831283594, -0.05128561122993603, 0.031149182905895995, -0.09462854089572866, -0.039738030414281506, -0.026280179276313934, -0.07448627510262652, -0.01202032580220703, -0.01535238058785079, 0.031151935561665834, -0.0764633839966718, 0.031483563494358366, -0.03985901010010973, -0.06457458231246944, -0.009919280787602855, 0.03801926835889345, -0.024456278876687658, 0.025956169119126713, 0.014086900514837264, 0.15832450804290943, -0.015787957461548294, -0.008409042414575043, 0.05595853902704941, -0.0026118150367159475, 0.012676725943487711, -0.08872403317823017, -0.0061576757401716605, -0.03561280096831329, -0.024218793870313084, 0.012957161478864904, -0.002773329867223468, 0.03900008903777382, 0.04818345864687181, -0.008949988449814575, 0.015126047179303105, -0.10271591896274422, 0.015888707765821443, 0.05318515808963298, -0.04594939840564757, 0.03815899597995508, -0.022828116055759025, -0.029127032655076036, 0.07193234701376558, -0.001661414378126981, 0.04378080658058937, -0.09862207622006348, -0.030801405757421015, 0.035941066067341446, 0.006283626541266683, -0.009286668162648679, 0.030505480135683806, -0.04198978367373449, 0.061479950508924346, -0.01073692351740769, -0.041201050007443195, -0.03788399414589492, -0.004118891250908026, -0.02154033931532179, 0.026575062355205906, -0.002342016027633738, -0.01797981107152004, 0.017849067435065574, -0.026745882256114562, 0.02481611283854707, 0.016485326860555254, 0.014406937544289787, -0.018079094904728355, -0.0318000663276718, 0.0408458955108891, 0.03101442620168177, -0.05091096635447566, -0.021861103406781532, 0.06766558862549524, 0.04969988467170271, -0.059094990666646405, 0.0006004808577443024, 0.02116292816456122, 0.05018621203887684, 0.006420627813993536, 0.02443865082507208, 0.04703995959618918, 0.053825682624587395, -0.009130180638822476, 0.002301065749254169, -0.03828742202191887, -0.013795105048505953, -0.020577434569641163, -0.009526703333710118], [-0.004760152448008693, 0.041080963470122495, 0.017643466498148276, -0.06464658728077931, 0.027799019609251765, -0.027717637420425188, -0.055023079742265196, -0.057692948746925994, 0.008575087484589244, 0.05358458000537784, -0.010647515860107414, 0.04733913499271065, 0.004327161249836678, -0.10887478982822785, 0.03091818109336811, -0.027383968896724765, -0.0409383289906563, 0.03120820862675926, 0.006760944638628159, -0.0033975397886502894, 0.004901884567438341, -0.042784572081343876, 0.08939652390061678, 0.008716351132093778, 0.008012524926226934, -0.004396562180200318, -0.0816475005938846, -0.03407070582189993, -0.061809861086219546, -0.0666527977114052, -0.07786066174036611, -0.03208287547037308, 0.0010345805329830186, -0.07183166061789338, 0.03534743382667281, 0.015023955768997184, -0.011703062898617618, 0.10920219712956085, -0.01215205215273848, 0.040315713726542406, 0.010579622117892318, 0.07266721240290443, 0.05477980413577048, -0.015152354639561027, -0.013317898917304567, -0.06775169751148911, 0.005856599312514638, 0.033064349830338104, -0.003125006791366224, 0.0707412888387794, 0.007329242050258957, 0.06300376537519316, -0.008239911987498644, -0.05856548210843866, -0.031566771283052485, -0.0016262701348813357, -0.03785780201650348, -0.08359346234871388, -0.10113323625430665, 0.0512100678225192, 0.01946224749037259, 0.01392285718364396, 0.008503309277754412, -0.027649641337106373, 0.04011991006372955, -0.08784676846382258, -0.1052625870154713, -0.010184838036080241, 0.006550746715994271, -0.04465450918516952, -0.08047528774858433, 0.029833097390463068, -0.02078028756728469, 0.035056761442786084, 0.06594805687448863, -0.08099328140754153, 0.010774192271277237, 0.012606355119971867, 0.03759917528287039, -0.026941404922974425, 0.0028198758511892674, 0.03705581866937889, 0.022109758307831923, 0.07873874080518146, -0.043863498849572545, 0.010456314038727791, -0.004357957272017716, -0.01043062676917491, 0.029705492722932422, 0.005840932973504016, -0.05383861948324498, 0.04811899906803089, 0.029812607569991906, 0.07448314008550568, 0.03672508549274427, -0.01078450263662712, -0.010397842652002926, 0.05231584226277952, -0.03874500633519539, -0.04570370912270764, 0.01113065905123027, -0.07546266157358791, 0.01761227967488236, 0.02372267918797746, -0.012444768010532833, 0.0711168410974704, 0.05697120492077708, -0.03930563454879985, 0.03312097754066559, 0.04972685587745358, 0.004180449699440292, -0.021809772449058535, -0.05600221227387631, -0.028194758061859924, -0.054876955266455446, 0.04608649966623694, -0.012886530385037688, 0.026347393696280943, 0.0636548578460854, 0.010716652547824897, 0.059451258453308765, -0.01770590919876625, 0.019518969513833584, 0.010374617216143698, -0.035431894204564204, -0.015623923631373668, 0.07147784749942268, -0.017418591150764183, -0.08397586827997154, -0.017487576964667344, -0.03802867996968816, 0.023027578775806638, 0.03105177771939307, 0.018088241968419204, -0.020681664728950607, 0.002989234990131141, -0.015923617879479365, -0.07307595372421317, -0.005662004145606504, 0.13317154705125409, -0.05198501083709215, -0.0936838172013924, 0.07192000146885201, 0.022660427341213974, 0.015048266253651216, -0.018110857947335704, 0.011427499160219309, 0.002614658119251433, 0.06620371423804262, 0.04631307359265487, 0.030417670244248064, -0.03448251420610586, 0.01156420768166299, -0.031083113408834205, 0.062046979007596786, -0.03611206746969404, -0.006793815432030576, -0.054889686380951465, -0.025159621848041443, -0.025730086681963787, -0.007713486295824518, -0.04543811245906998, 0.061398520845405764, -0.0094482076040383, -0.02695184583002914, 0.0388750511258636, 0.10921764208863195, -0.020416997542031624, -0.012382156144959688, -0.03728945538970507, 0.03343748543917186, 0.04825355291507735, -0.0023424440969297216, -0.022140884985442196, 0.026969063824873785, 0.037358978301371394, 0.0784909976124746, -0.029422370800648055, 0.04304945295350576, 0.005342797098635249, -0.08759435431735356, 0.07688294412335038, 0.015025026303462363, 0.03064823318301201, 0.04779625236550798, 0.030105384813203327, -0.0488405002500956, 0.03407642234042083, 0.025083631128667103, -0.08433968277093419, 0.08414758821361591, -0.0190577659914096, 0.050283757908264115, -0.016970576996429773, -0.026931245328578407, -0.003986158315848009, 0.10716327293360738, 0.10166899385545582, -0.026997993235846268, 0.06300029156293169, 0.0011802269072927914, 0.10194029681461202, 0.05822877643110188, 0.014094428516184792, 0.004110414508383383, 0.030728315235476752, 0.02442077751326182, -0.05569151194773408, 0.010496161279764707, -0.03291487074156856, -0.026753578802590283, 0.0562933868068986, 0.010290867335031042, -0.022956734537700228, -0.06120865084633081, -0.03919625029193752, -0.0030023075689826575, 0.08514874961459179, -0.05298634836955379, 0.014887844979102756, 0.020562629863494056, 0.06175260757027294, 0.006307274222431637, 0.020605977755982375, 0.0597050027417805, -0.039247643844715546, 0.03996191497238353, -0.07040606869882103, 0.0032422784630873904, -0.01198790846024171, -0.03647158121208743, 0.0491132737402845, 0.05194769606533793, 0.053994037181442626, 0.019179799210643222, -0.06225467825736292, -0.016615759150099434, 0.05080463744688508, 0.05013834112155914, 0.06044221399460687, 0.015863992719412356, -0.009188714408896608, -0.09927146519953155, 0.043570267471671746, -0.005007600211950009, -0.06332534797966348, 0.03852358379182668, 0.07169827696956028, 0.043803757222126684, 0.0340887357771548, 0.04714403666542149, -0.13791768677487995, 0.08693177054511536, -0.039988752517684224, -0.0355570570458598, -0.023794272638641246, -0.018019335757788208, 0.07578203432612945, 0.027467722859867958, -0.03426963588142711, -0.02662521982019515, 0.12598469535694248, 0.017830976649387233, -0.021810419784728776, -0.08191661530585988, -0.08463533643721052, -0.056411326079337784, 0.004840543814562899, 0.056033867851489144, 0.031116458417150546, 0.05929903767511924, 0.02857593098508183, -0.06191449400790814, 0.021458472381811047, 0.023618528390879936, -0.0060658878901051864, -0.015454102266876707, -0.007488640745551617, -0.07810586966689773, -0.06728447238602506, 0.1283785367913354, -0.06320886378124231, -0.08922739494024821, -0.03638233742934802, 0.02318948927764354, 0.028344135005602934, -0.051717433672278774, 0.004878144557399871, -0.02750674778121973, 0.00961121149162641, -0.014811793362866681, -0.03505443968531032, -0.032786097068039415, -0.11107287077475178, -0.011189121440423437, -0.0038605818038065145, -0.07113986122509018, -0.017006186832524025, -0.012892431764798009, -0.0936146942503489, -0.038968320294721075, -0.04055840445692625, 0.009078180547928152, 0.06289332436855363, 0.0023846713645960535, 0.0585680169127446, -0.011236565287128781, 0.018750563112499237, 0.003373765339051081, 0.12179605775251527, -0.007694888017858819, 0.03952113728364006, 0.010239108366712551, 0.056852099994944325, 0.03192826700195553, 0.017209961011943834, -0.05766201560395495, -0.05321231958178349, -0.03111945359970468, -0.014774204400500075, 0.005613733308591507, -0.03099811490300083, -0.09986377203659087, 0.05189028671446804, 0.02259230123250622, 0.0030431343189445854, 0.06332940859827207, -0.0405910164601387, -0.0066114440917863235, 0.008058124739010101, -0.020969218673373813, -0.040187094049896836, 0.04418255657133224, 0.01434461156608076, 0.031517572837257146, -0.04159953033205344, 0.041920262305981046, -0.03147995278754505, 0.01248647147372679, 0.09998429326186734, 0.043036441343727284, 0.017133162862743006, 0.06821033594448389, -0.02877223796094751, 0.02478134205404817, -0.042014848692353765, -0.01827097015960601, 0.08034330069573316, 0.013822142101455171, 0.07107263120459122, -0.005182470801840946, 0.06165984252516351, 0.0026126086074970594, 0.006757100547262525, 0.0012218550386365536, 0.018211744873365097, -0.01307486679952289, -0.07015977648583266, -0.001803625728031936, 0.006687590603895147, 0.08257322448788794, -0.11417122932197513, 0.0816886826650915, 0.05294543032866321, 0.03462884958288189, 0.007790779437411938, -0.051532975188946104, 0.09853111301062935, 0.06235883346182956, 0.012666195009689919, 0.014428268559873818, -0.005495997208410215, 0.03002166508630595, -0.0022402427788782197, 0.015551377776425365, 0.022122269582258547, 0.12274885886062832, -0.0459712039423868, 0.008079931919575503, 0.06199534506427731, 0.04175347361221942, 0.03421617928035618, 0.15209465850668727, 0.054947676654895264, -0.03155550931181184, -0.03735386930419588, -0.0019361327236355763, -0.022033009398084544, 0.004007313669731792, 0.017071483083743233, 0.01380794855298589, -0.12411073535792774, -0.038164311158183105, 0.03616408337494784, 0.08301591979546577, -0.020390220849849528, -0.020144670340827304, -0.0045027102331902805, 0.08710821545358505, 0.002713076509619344, -0.11322494867165743, 0.09028939941701987, 0.03493302989023992, -0.06530826437574741, -0.025819127038511414, -0.0401830533687494, -0.010553355207797908, 0.07511029337636047, -0.09429991411587561, -0.01734474564660696, 0.005613936825086638, -0.00350579257331292, -0.04023928753896702, 0.060100593675290075, -0.008020019232646003, -0.014506188529066408, 0.017483180392863833, -0.014156510497461984, -0.02796560501113716, -0.04674577614081157, 0.11061479767732281, 0.0400650430313674, -0.019310042974769275, 0.06421288486430407, 0.02643968492563088, 0.001945206120710373, -0.05197500960216727, -0.04180978028511149, 0.04891534514480752, 0.0379939286104677, -0.06934553683546399, -0.020589786199876614, 0.03434314345075742, 0.056184633175002566, 0.02598251013393392, -0.02304804719114781, 0.01191995312849645, -0.010645785597978876, 0.019293669795755006, 0.07465506211691061, -0.039508758914121464, 0.014192239730342077, -0.00488576598044942, -0.013274107332866384, -0.007062735896588559, 0.06634640918022379, 0.029270207474172243, -0.024200689737729836, 0.03281148996442574, -0.028222887885024108, -0.09037000077040061, -0.11640122462471143, 0.025293323534361797, -0.014365441384605278, 0.050378537797166376, 0.01955263481117332, 0.013158833668272966, -0.02277364056519806, 0.026347009948379983, 0.07837634685806599, -0.10198836415053746, -0.007565634699011383, 0.06794197077242362, -0.05785574533017718, 0.006743281991141012, -0.03451334326666249, -0.013516636090960814, -0.0895606560130965, 0.049736485049628625, 0.007606295451413938, -0.0729539131026628, 0.021143576729651458, 0.010505631576532308, -0.034790926275115805, 0.09940906808665267, 0.026066786551616546, 0.06516596672186968, -0.008138267672148796, -0.08207574275427447, -0.1173595761334645, -0.05120856043064872, 0.06807781979400593, -0.025751010155730766, 0.05258843720918433, -0.05891434618217133, -0.03346550998155419, -0.02618774023518491, 0.01137214997864603, -0.06829575027091479, -0.04012176908809684, -0.011775896881435795, -0.06782581151938238, -0.08887286485997206, 0.001442605599959833, -0.06704818169872369, 0.061346804757998245, 0.06273552958985568, -0.02946810177745926, 0.030406524596069837, 0.003486794090669591, 0.05393221354521258, -0.023146004693248727, 0.025780827003689236, 0.01574759903985382, 0.013172886777740303, -0.031107857190364952, 0.059887261024402186, -0.0206051784298876, -0.020916302936009486, -0.036373559415171, -0.03332369801539054, -0.012107998697158813, 0.022715773585467496, 0.039565318879256677, 0.006497268295313971, 0.07153253345511633, 0.005943303094381643, -0.09068891004535218, -0.05830907681257908, 0.0353564061167435, -0.016433035657241784, -0.01988689955912272, -0.048712848462907424, -0.02021596222078724, -0.019466195760217905, 0.0247789336697044, -0.012355859225633587, 0.06447303685901952, -0.03307995549254773, 0.010325380798735063, -0.08362901698796556, 0.03328381882097012, -0.07176050735819303, 0.028790632941226017, -0.09296621779561536, -0.05220145027705614, 0.04231898867621279, 0.07901031061339354, -0.1371943525677808, -0.055044708743257474, 0.09240571910513326, 0.007173076111985098, -0.05213081540415065, 0.07460124851537514, 0.02956819740581067, 0.005556784247429376, -0.09683084612665621, 0.10586334474080725, 0.013252239863757646, -0.015640175616907868, 0.07382912615447935, -0.0462996391249303, -0.0552328923310003, -0.04915497076351491, -0.01918834755549728, 0.0013521261906013094, 0.032332011789047925, -0.06318715401974663, 0.015318222761475224, -0.030433884824700056, -0.005456285237795949, 0.0610709915913634, 0.024893069185433516, 0.029097793528298905, -0.031118362300199754, 0.09725092680735525, 0.03394520856391815, -0.02145618736446237, 0.057633815489231, 0.028736062906542077, -0.0637916621937486, 0.01010276621294642, -0.04889994826646567, -0.10303739458233778, -0.02185424185451548, 0.05727758258929376, 0.07446633582499819, -0.025795488536854136, -0.014415478298197915, 0.07051548158357042, 0.03387293282362687, 0.02472209436841695, 0.007044621779299068, 0.03660712045492007, -0.0015077459723387907, 0.07725210963262787, -0.0060380235039893095, -0.006838981788069661, -0.10381984308072068, 0.05344196079971397, -0.04862552265727235, -0.11970478711276702, -0.009034802924569561, -0.017085164881297656, 0.022720812994302706, 0.03278641951948872, -0.04180731572678567, 0.1373763085936991, -0.010168997737150048, -0.08526695245507779, 0.07994432675383467, 0.03679011254484031, 0.020650650182163343, -0.021986174075798174, 0.0023144168622272294, -0.10952972916762972, -0.013690168184552072, 0.12408631893623731, -0.04820196747068751, 0.008928375430698228, -0.08509999565304716, -0.026299384879135163, -0.06390183470661126, 0.021582928716892234, 0.010901201476780841, -0.06581027878862804, 0.00445909861581096, 0.006250963206995916, 0.008834932768323646, 0.043129987124328896, 0.07904666978308832, -0.031003858015056496, -0.015473280329220457, -0.00875107459501441, -0.06576627885045686, -0.050901269019617466, 0.028448013939169094, 0.09722494972867753, -0.05250968573309629, 0.11582438184462253, -0.028605172199428146, 0.06121023252273493, 0.02168647929148363, 0.009837626281601513, -0.021567167014052674, 0.000800276570261324, -0.035906785669124384, 0.0477637926988471, 0.05646064878686585, -0.03285518792210376, -0.08285616328013833, -0.01655887241824066, 0.10043221857471288, 0.011715535645588025, 0.0582583360581708, -0.046861308015913386, -0.02455708176654604, -0.01569396688633533, -0.05914937208147945, 0.00842753629663348, -0.04133652104045864, 0.047928811400158165, 0.004505746657392156, 0.07479591639666688, -0.0847211204113416, -0.026823681683015625, -0.020577620742454526, 0.023395855206866857, -0.021315450776052552, 0.08699504036136219, -0.009298223710715415, -0.04573046708685232, -0.008128442074345254, -0.01644696190392596, 0.04688359436920586, -0.020799429123567047, -0.07679199079016903, 0.008966117266041731, -0.03287290440399459, -0.05832443257126463, 0.0011405544052158559, -0.006672919023678838, -0.011128649862774351, 0.013153320588150405, -0.029238204502510783, 0.005855768633881911, -0.029778639325717043, 0.041529816902376455, -0.0012000706619493308, 0.0883762748493267, -0.024995428459226518, 0.018039177812020996, 0.05705891802813223, 0.027083239857544957, 0.0070933683103470814, 0.01697343618050556, 0.025634149024508064, 0.015044568233916677, -0.0007424883151001545, 0.037231536238937504, -0.004280507014922094, -0.04973716546549, 0.10396711197925833, 0.04431827672437925, -0.046038766166995516, -0.012343318424868022, -0.028774783678454575, -0.02515880004709333, 0.04379568895055688, -0.016749538654967, 0.09677748402691445, -0.08923136829851186, -0.0014990878060471377, -0.06725054838646939, 0.01653987674868513, 0.02259812298862729, 0.045407631081387664, -0.061972983061321506, 0.021788402927905848, -0.044116805718732055, 0.004838509777033752, -0.022321226572773745, -0.06386907788116361, 0.03648119083095214, -0.013059806040520395, 0.04331531759959717, 0.04692232941224137, 0.06623214870620196, -0.025597399375835054, -0.04691712771012593, 0.06064276250950757, 0.00519315590216669, 0.06812784590395655, -0.05973982393967112, 0.03478342124607064, 0.0021771476476500334, -0.0020938114054023815, -0.016244220015084458, -0.05609171935321675, 0.0335267423365697, -0.01980196078563889, 0.010680520761122608, 0.09760183851715273, -0.027115673544106097, -0.015036582579528363, -0.008229839775524418, -0.019914949831301553, -0.018348281790886878, 0.035239581367773797, 0.06683997859711482, 0.006559907480108761, 0.03736870734880699, -0.0087267982187843, -0.00999972072688507, -0.020196650178864666, -0.03862210531509854, 0.06244699581017168, -0.025350641653786206, 0.030862527671605175, -0.04228109173615851, 0.0023171121542302376, -4.0676755332676486e-05, -0.04187488695880735, -0.017512976339467978, -0.05397114700463071, 0.0008468248899751486, -0.08892213154519553, -0.0029175584070418236, 0.03287718249370701, -0.0006546235122042265, -0.03536570252436383, -0.032794546942714546, 0.06102097049062242, 0.007990292602214956, 0.042657849589270935, 0.04761308720259919, -0.022512815692491077, -0.05058902147779787, 0.032631865587519224, -0.04329588823987477, -0.029821324208726373, 0.005234585880091678, -0.012686661648862682, -0.11687470603501719, -0.06235675609769273, 0.050948997532102525, -0.004105011799718491, 0.03700739156836415, -0.040992521615319064, -0.05615458631126107, 0.03646940545917789, 0.06548161069386861, -0.04407780587946581, 0.051405035385946485], [-0.04931607863063052, -0.08267887395715741, 0.029589723223260266, -0.04823192929896586, -0.06112460333088893, -0.060029446348677455, -0.01756819223434135, -0.08589467840853836, 0.030011383540302222, 0.0243211165113843, 0.02427700943749774, 0.06099779184654604, 0.04903379483667879, -0.04584301702267045, 0.03404876887528089, 0.05612553578682071, 0.041121808259778445, 0.04490503790157594, -0.007605887760058456, -0.032737168483806874, -0.011847222443413423, -0.03528061978008472, 0.050677583402417875, 0.00942808068096997, 0.041604565992344, -0.07317430491792938, -0.022550070321851225, -0.051782542150750135, -0.08211113864930325, 0.015147462623631668, -0.05376599378205122, -0.018839623255562835, -0.04906815194576812, -0.020580336606162753, 0.029740885783185397, -0.04832094036726126, -0.022915976660837577, 0.026688180520294907, 0.03442755567869751, -0.019898556485661464, 0.014914920035101165, 0.0412850290452327, -0.05337506986844951, -0.03604696334148336, -0.018882165077714508, 0.022568186216953067, 0.009437920361778207, 0.003263352211584705, -0.05192297865561823, 0.04398693668179873, -0.02519964672202845, -0.013462795663397666, 0.009864480011465579, 0.09965110325383877, -0.03238128576327295, -0.03490164309224094, -0.018918310366792698, 0.058636936021375013, 0.0075381400747653576, 0.018985371140431976, 0.04075250822253438, 0.05694590639364614, -0.03382873469592115, 0.026405040693232903, 0.058218787431745425, 0.010397774578728586, -0.04136151545964899, -0.05125227088621918, 0.022818289864661105, -0.058233189400298896, -0.04106660709351473, -0.02474095936053842, 0.014163960477635852, 0.02947224760497748, -0.03586127563311222, -0.0654936730858077, 0.04122749729653756, 0.03412389959962689, 0.023707766703845813, 0.01895427951585895, -0.020065705563521437, -0.008970665779060341, 0.0038307711919682384, -0.04257381415979859, 0.019367310256245465, 0.006021147631168026, -0.006837994822068471, 0.04608861177878866, -0.005103630118498571, 0.033316172814219835, -0.060037605927972484, 0.04243700239725633, 0.030515571050189528, 0.10918829470494577, 0.0808578469281033, 0.04729302648501369, -0.027212159169010437, -0.04471224508064628, -0.0366182558025343, 0.02573279230013681, 0.0653688600184014, -0.0611600469808653, -0.042598905549672425, 0.0016873497379861063, -0.05735343977045442, -0.0213552377167289, 0.06287000141456484, 0.036439129844831976, 0.04189768779930232, -0.04972463344579778, -0.08818210263401363, -0.021669062649527733, -0.11756188683934396, 0.02285955640785361, 0.037747939559662255, -0.0396818826680567, 0.029400409260279127, 0.02912745654830057, -0.05662762711124099, -0.020195305244662898, -0.023630487069765383, 0.04711413273603572, 0.03699003391050656, 0.02890528653404388, -0.028345982821494992, 0.06897878475782135, 0.009152344335018534, 0.025030091242768705, 0.08740986537831459, 0.03345461348677561, -0.006049440863804631, -0.025155461112794673, -0.08757435498967732, -0.0791150304330812, 0.04322412999685439, -0.09979693976964962, 0.05107796464281515, 0.04057750247266915, -0.04368814749870336, 0.009171078448436669, 0.02910224219572068, 0.00464475424490673, 0.062186178732569264, -0.07031145985424685, 0.025464223880449166, -0.030754854760105546, -0.08778844816354685, -0.05860028881311384, -0.02649051484385226, 0.0011745346770953805, -0.04551173238073836, -0.025561706974508953, -0.019999452282370114, -0.04442399344288192, -0.028615434049108827, 0.028938595149644294, 0.08328510435685435, 0.010522427945373298, 0.006648407074908799, -0.004059673032175269, -0.019743491429996825, 0.029080846432142978, 0.04965748747108291, -0.058671475987847076, 0.05244123574151584, 0.08209781671592137, -0.05089231839615587, 0.04650166386184291, 0.08259912974925722, 0.036156571944045084, -0.008887459092436921, 0.039336647951579845, -0.04103840767112503, -0.015785863716296367, -0.03700420556623697, -0.06804390039494194, 0.0020966298234075817, 0.015356631191862704, 0.03345370171323288, -0.22619953429353218, 0.009227557574130745, 0.003982764185379062, -0.05509040108838937, -0.02244692899886969, 0.03809738149416421, 0.004919389659996279, -0.0008966779942888155, 0.04509942082950746, 0.116917022380773, -0.012251794250736758, 0.012463846541596966, -0.04503202129164035, 0.10832773029415538, -0.02726473489745617, -0.0913123055312778, 0.03140476023718504, -0.08132595245366439, 0.06540884113313603, 0.029763822492866247, -0.05191750813587602, 0.03386933571400493, -0.01685983941898325, 0.021555775702088924, -0.06471800179764828, -0.06782376783105702, 0.01605484154552196, 0.09515045143640735, -0.03258422267079677, -0.036405059150870285, -0.01710785172759591, -0.06684067681054218, 0.027920909441638105, 0.04555935237698602, 0.02435547547779254, -0.008574245060142318, -0.05176145015945409, 0.10421229536232658, -0.043307329762287565, -0.04450494659936224, -0.09050214742862973, -0.07180996836176928, 0.017658292851500657, -0.021555606261939364, -0.04363278884867643, -0.04029505391926841, -0.02594864456110481, -0.03355653686978318, 0.07084538680695054, -0.018786805584498027, 0.007363401674594922, 0.0029903970424186364, 0.004705259283788051, -0.01871911648396825, -0.0239538740423447, 0.032482025734551855, 0.011095123919028739, -0.03831184754262749, -0.14444432168035087, -0.030655956283708742, -0.06870710219547298, -0.04663233438817834, -0.06677756009352796, 0.05856665201264259, 0.058209490677539354, 0.03828638692576081, -0.01686249288759358, -0.033633095649819165, -0.07548200460715064, 0.04618393167418088, 0.04387206388048965, 0.024888924006873536, -0.05599208230353126, -0.01702376684789587, -0.006034658417211989, -0.08924303196719782, 0.07216664141040861, -0.06827206972328712, -0.03937656598816087, -0.0894923706667054, -0.010281404666436698, -0.012552937030980883, 0.049505258872025344, -0.047859331917644674, -0.05481699830159179, 0.00404919703390884, -0.10482608886924497, 0.0672502249697975, -0.06675287878060625, 0.09177222471089112, -0.040004314680510765, -0.07206835689406099, 0.029450038642641473, 0.026542198571717183, 0.027766572877858234, 0.005080502998019312, 0.11312304033389713, -0.06816053162280321, 0.06877075037896195, -0.08126196726432723, 0.08343332013694371, 0.017809311801778634, 0.07875984797519582, 0.04505928691372566, -0.10983462397237893, -0.017071512426212042, -0.06329699552021449, 0.07544656701812494, 0.04043624791799134, 0.00764765823108836, -0.020833567739681282, 0.021391386569415197, -0.048393597875314075, 0.014209153181539196, -0.006225919451951855, -0.04125334905680214, 0.03512606390187101, 0.09524783356747163, -0.07214210253631403, 0.04771447784794997, -0.04077846138322211, 0.029497313357821592, -0.0311716424872966, -0.015137729578266248, -0.010142209088900758, 0.06875822105035959, -0.0046489314902506355, -0.017131041050790375, -0.0041865364017609165, 0.09576666565783307, 0.0282886579664237, -0.03083218921897875, 0.07566809728597465, 0.009119852848260777, -0.043582082948412884, 0.01988514309159038, -0.007584604238742781, -0.1708276222397649, 0.01670526260774283, -0.05431435080697057, -0.06427911271907398, -0.09814103489989702, 0.006474597896263968, -0.00745142643545939, 0.047935911368442635, -0.040279119128690505, -0.024309465061884087, 0.09998324732725873, -0.09974864324884151, 0.06141208559931532, -0.039385357118417556, 0.15731858153986902, 0.03647432374080539, -0.031717717173444175, -0.07039530631855784, 0.02067021880109846, -0.09645990574555481, 0.034775331498521904, -0.07039398634918945, -0.04898521939480458, -0.14155322106704352, 0.006572906927726936, 0.014111423049166058, 0.001432825567035933, -0.08698929140603912, 0.07246045208132872, -0.008184650946281746, -0.026354813457028777, 0.04056901719066099, -0.022239471453555055, 0.022284773503922366, -0.039409489623331906, 0.04122219866194113, 0.03992545243688657, -0.02288915198432363, 0.00769024196348983, -0.0012529279365551054, -0.006318240734780381, -0.060001364461977874, -0.052898244226171905, -0.019459437198882445, 0.003476261700862946, -0.0446273888178305, 0.0007296215008516704, -0.1156298950702616, 0.0001465036802048472, 0.00389482510949685, 0.041352050850172094, 0.07185572806298357, 0.03456709262741039, 0.09078331629276466, -0.0014789772779075251, 0.002338294688601159, 0.04074353840264733, -0.005397455400105135, -0.01671407240303274, 0.06940840508231175, 0.03655247255223922, 0.033321995074625126, -0.04365231142776092, 0.047664943780141585, 0.004156289808926778, -0.04998508616332872, 0.03520015257758132, -0.06056173524313116, -0.12160493332050876, -0.09117114872098149, -0.01254943870024202, 0.07783705629655656, 0.015799023182054832, -0.005176180021069949, 0.06662647306194491, 0.02577161542802555, 0.05172022722520167, 0.04910864248607072, -0.01584571638062831, -0.011700217517193889, -0.04209601578791816, 0.04195925228773487, -0.06200420223654625, -0.04474840910427455, -0.0035362631758098593, 0.005552115568277855, 0.029631027298964312, -0.002103013822239516, -0.018369573049508574, 0.03651922537579899, 0.04617939200428811, -0.08585260882706465, 0.054020110690053476, -0.01650681903634969, 0.08071488779342871, -0.03283910725191626, -0.0502302570510907, 0.03273034205347649, 0.1076222779677815, -0.08196137912867786, 0.04234523969913614, 0.028300629876384435, -0.001647477267123162, 0.10471900910844283, -0.09663518297700248, 0.05618696028429022, 0.04913700971535486, 0.06047902795494812, 0.05407964188148233, 0.011887540604809748, -0.015408598863812475, -0.030828544657720475, 0.029684244798241725, -0.0003151950080406856, -0.010644683977508536, -0.02796614466232372, -0.020588472383652457, 0.039245687813020236, 0.000940222891556382, 0.06107469251098003, -0.0683406554221999, 0.03134205702887978, -0.05091697678503203, 0.061073898721812805, 0.06242188706659788, -0.07122847209561493, -0.038667409774672784, -0.03650739971189161, 0.06376992953912888, -0.030005614470349218, 0.0348507051448251, -0.03339509423914116, 0.054318447008122765, 0.059330924581188216, 0.08434271431672279, -0.008659131161631252, 0.0001408504181134244, -0.007026594542650117, 0.001332449232863228, -0.02149651782540891, 0.053389449414274585, -0.0384202775672917, -0.007302310212309019, 0.009727424090478467, 0.024771150727510995, -0.06014532665595692, -0.01241863267419551, 0.0011154436306522414, 0.04052087902596748, -0.010787804122293932, -0.005159681223747618, 0.006941753927497537, 0.05299288249227583, -0.10361985333607826, 0.005356317480386019, 0.05906102968907628, -0.041779211788972696, -0.03802520966771857, 0.061832569207465035, -0.01763171756433678, -0.01614434291999684, 0.014000007028453906, -0.15071136257675002, -0.09184399281205873, 0.029269472112115412, -0.012367721055559229, -0.00809637348035347, -0.03320045719050889, -0.013889352295466914, 0.06020673812992981, 0.006665267139733166, 0.05351368919106243, -0.007797718489943491, 0.000975775928439446, 0.016441960320517153, 0.02659525669182893, -0.04280053239988284, -0.0013035457255087435, -0.03411037115042177, 0.0762167861333605, -0.08708640532398164, 0.0296015349301134, -0.03906158636855039, -0.05732282848583447, -0.01526492203577895, 0.06517019021282026, -0.03244040323609156, -0.09112796456743988, -0.04769713744388921, 0.0062475760572462445, -0.08165499435897702, 0.03642752466796707, -0.07986241729525952, -0.024354448425068086, 0.04136510400314008, -0.025366046590795145, -0.06784064108697206, -0.004587441621642811, -0.024915868854059744, 0.06120442198875015, 0.041516246704709964, 0.02557348003687628, 0.0010886793870902476, -0.011052342960360988, -0.011316986585033143, -0.08635069311842261, 0.000148840349169883, -0.04002754059068717, -0.00432441914816648, 0.0026345623108348227, -0.024526379071941717, 0.04712857204732968, -0.05429307660333553, -0.024949364230012882, -0.016585962755567295, 0.058359685700366724, 0.0015688551617313194, -0.0008780319925428007, 0.043967549310825145, -0.026368017024671894, 0.044202273570661185, 0.020091912024147143, 0.0625032241776917, -0.019145218928136268, -0.014871884087947752, 0.0071799102971014895, -0.003071014341152355, 0.03877325938124426, -0.010932569392591575, -0.05355524861862658, 0.06841424102687556, 0.09673344533977571, -0.07917246984488915, 0.024252868443443498, 0.03773617707633305, 0.012291361812697145, 0.0794930463359093, -0.06777595666751077, -0.02847145694650466, 0.005394840909751865, 0.046460535682629416, 0.06097854735753601, -0.060906376757635876, -0.08971874049230368, 0.039373911944381695, 0.005887412874722637, 0.008302153739658796, 0.04059954835867779, -0.0409081952545572, -0.012113460760605783, 0.026450420975700977, -0.04802350982039748, -0.027393226562848642, 0.005295792431432861, 0.02644278688196079, -0.07304891859483048, 0.033691739193869044, 0.022062288289809245, -0.042540616620371174, 0.11360299119314303, -0.048009712508605855, 0.03709869798518376, 0.014018098097070664, -0.02089005615053581, 0.004557908235194501, 0.026953941060902847, 0.14418326998588782, -0.07316245539146857, -0.13693169215454865, -0.0510198965354124, -0.0015215919685683107, 0.033612311416635, 0.00487227001225969, -0.007686831659703311, 0.07761347550374521, -0.03994560349559173, 0.08396984265167268, 0.0313417044810108, 0.07574170185361759, -0.04762462066011643, -0.017788637988076908, -0.0738042715818935, 0.015162149215425188, 0.01620953832584035, 0.10144485891197576, 0.004081682203237428, -0.07663367712298248, 0.04768897228893553, -0.0461302196907064, -0.06411945385173728, 0.0354553469777302, -0.03878328192090035, -0.030249068284359908, 0.07083633069606012, 0.025938711590797088, 0.030153845360853186, -0.0695204331902661, 0.035635376955081725, -0.014012265782521911, -0.022431043109881536, 0.020632104621140537, 0.0004199762352209818, -0.07390683105358399, 0.048083381142483894, 0.05290903431405411, -0.02966553465776651, 0.030754677829631014, 0.04613875341790465, -0.09438205018058883, -0.026023275444258604, -0.10997506143495357, 0.032024044523506545, 0.02255196348100018, -0.033096715451915754, -0.007588089516512731, -0.018593245812665533, -0.10305280458263184, 0.06567636119667512, 0.012888279625805701, -0.007286755969510444, -0.0069593355107286205, 0.035745796695265696, -0.08014701599278014, -0.0442129119158424, 0.010756475030205746, 0.056344938401495896, -0.1217244798008132, 0.050309250395954755, -0.035760281022318, -0.01447423877537297, 0.0017077485491865023, -0.055802770891209066, -0.0626425527353631, 0.01048254863936694, 0.09570412721486005, -0.04778995336217413, -0.04818719927544268, -0.06180807067590199, -0.011392262641412243, -0.04963096863487082, -0.04854367744128462, 0.010615416180271736, -0.07296046085982873, 0.08193897988132438, -0.05938509367700978, 0.05714623585412686, 0.09965061769329972, 0.060512580245825225, 0.05423450804838241, 0.04021217383997356, 0.010797093635466012, 0.05953857850706206, -0.013161517606947106, 0.04370030494548922, 0.055951368932976135, 0.025683751741882515, -0.01360154595453911, 0.024654239361947758, -0.018654625743078235, -0.02746712260491946, 0.03978335048803026, 0.007384329185346337, 0.039182435711238715, 0.007706839737919674, 0.0257330010062031, 0.0706260884855163, -0.008187582361292762, -0.020383574653522505, 0.021706957619419816, -0.1302499286717803, 0.03580313553031833, -0.04354341983832497, 0.0846459922497215, 0.039888307837691664, 0.04626945505892563, 0.047461330650035195, -0.02319315463796912, -0.013136593967188194, -0.08545401972352423, 0.07548456549988505, -0.06506302351374019, -0.0007490260111384255, 0.061873896154745964, 0.07749107720880374, -0.01266946195296714, -0.0861703171398306, 0.011670935319182426, 0.016825875660903315, 0.021412746086904185, -0.015433038261922005, -0.006973156501601403, -0.03505453800719296, 0.008016348195870325, 0.0404965929708968, 0.013296126501841317, -0.0022204303242523665, 0.056760795825330314, 0.012956295984844159, 0.0015658512449013978, 0.003922736636532506, -0.06113315686734531, -0.055056822379293685, -0.006274776953429633, -0.037245146476483755, -0.002285194180145704, 0.043270304217548204, 0.03564477845601429, 0.019826798590676698, 0.04266621701640399, 0.0520394420341003, 0.050213147485290245, 0.04896735841602706, -0.06054927966457263, -0.09551704274232817, -0.03940744389794425, -0.02307142356119299, 0.04690130794514787, -0.004873265012236004, -0.024234449186736794, 0.008259699466990929, 0.027063553271791618, 0.03918118284789772, -0.02086094787462019, -0.048336523027786675, -0.03932282564760153, 0.006067187352220852, -0.05314750815732834, 0.04789644908807641, -0.05266238898974071, -0.07866716095969845, 0.007846540552509034, -0.013940388718930816, 0.023799108194709952, -0.025206678308351042, 0.02036111731683183, 0.05087146288737715, -0.031483757881145887, 0.025889573892500253, 0.09070037350938594, 0.038957696831161334, -0.04006371726509606, 0.01691284618413006, -0.06574173508605612, -0.05847291952570789, 0.07534499857627996, 0.020602459149980882, 0.07769993186670099, 0.021523846375777544, -0.02754739626494679, 0.0021809772937245934, 0.013542689721752614, 0.11180424949934278, 0.035508037137700996, -0.03754981757921448, -0.009766110457192619, 0.023879753603433758, -0.05495561006334275, -0.000899260032205663, -0.010344610451267515, 0.024536501272798154, -0.004990684541599052, -0.07061381189463489, -0.0022967115370508408, 0.0388017550039433, 0.07299371016889002, 0.04859384847640166, -0.08059710993741978, -0.06749259130868286], [-0.05339882586788404, 0.07604447112301137, 0.025000649669091223, 0.1333058538850488, 0.06487311729710729, 0.004817952726544212, -0.023005218691286244, 0.018898473973281812, 0.04248225018129025, 0.06116182883153125, -0.014596990043707257, 0.11071208152735251, -0.0022401587598485746, 0.05976117521759594, 0.017007306244107182, -0.017895554218472436, -0.09917683132841688, -0.0625718081489699, 0.05943411996524957, 0.037998771698299655, 0.029933467777932085, 0.07849659266735497, -0.04945781576456467, -0.023840986746454275, -0.02042358160959939, -0.06761707287466978, -0.04036381821120563, -0.05416941859026647, -0.07928991886120032, -0.04530157335237103, -0.003324525762617802, 0.09026222644840948, -0.05147977948867435, 0.05421805683106887, 0.01117139030335735, 0.022070339442564108, 0.007312822040848571, -0.09361615122639808, -0.05311699346130157, 0.028970142160852995, 0.002332941969782004, -0.08312058291700763, -0.010983961706694497, 0.029918830291433326, -0.06332781344390608, -0.02003321657664732, 0.0766890030229323, 0.029764978853437037, 0.0801384753714889, -0.019008391892600028, 0.05463334663029152, -0.05210230158453606, 0.04193772860107164, -0.036110806805134746, 0.023090029173369622, 0.025642985426444713, 0.0347610330757432, -0.05091631804042419, 0.015982117775358545, 0.0012673047995187265, 0.06335779853945864, -0.032332328660510196, -0.06597269888972752, -0.08310148692077958, -0.014429030265699382, -0.02156038684675375, -0.015183763754275468, -0.01494835597188135, 0.07042862686703698, -0.007425381676779999, 0.05713856989356027, 0.0194091108581205, -0.04610270922085932, 0.0004275723866442755, 0.07806087846680168, 0.05127375819836634, 0.06073587616116289, 0.025497562396442512, -0.024105464908015857, 0.08283508657005081, 0.028258380305189693, 0.04701764968431227, 0.005481929868689235, -0.05219389883595482, 0.0199478396317107, 0.08555729828666993, 0.04082297449638387, 0.027972908307419483, -0.04343090017431669, 0.07692532506676553, 0.06804590929711175, -0.09001756737412808, 0.046917316479440495, -0.012599421237110109, 0.014731903055322586, -0.04129472428046672, 0.006099690521981986, -0.055572621552541335, -0.04056974034350581, 0.026147560078199166, -0.03822525362566928, 0.02166330291550379, 0.005541689290571416, 0.12030755867575925, -0.03266824273900973, -0.016981631797906658, -0.036188054094637274, 0.07221212397951679, 0.0053776927240727634, -0.008151016622442223, 0.03890598798054481, -0.04394969750129713, -0.06778957900425131, 0.014402201075111832, 0.008188604276663616, -0.03719766754694378, 0.01796104777430836, 0.09343215028805808, 0.02260941810988694, -0.10011646544105766, 0.07157472250988735, 0.10047772302278207, 0.026725268745904387, 0.00865295761323323, -0.07815918692391109, -0.043716974553595626, -0.015502666122612287, -0.037094876954488154, -0.025728954562971095, 0.0062379499123443715, -0.03457460888566398, 0.0767442222844987, 0.003759735750156555, 0.025483002567123603, 0.02572355571821083, 0.01932659545501298, 0.00239674429778989, 0.05048086836742229, 0.06107259032972619, -0.10420888212823957, -0.07258687098793745, -0.02741540112842638, -0.05634519181314089, -0.037126317312628554, -0.02287133107391861, -0.012975808761670992, -0.0753145113438952, -0.020922128999302157, 0.0718559856175983, -0.012697449315491301, 0.02989941746962476, -0.0033994504498795837, 0.005802505438958302, -0.005833949690528553, 0.037526780308798524, -0.041460907730966404, 0.008639271658362408, -0.02914168588061381, 0.03385030575860166, -0.0559606364757017, 0.032857828584307094, 0.010533633454205224, -0.0638773519345068, 0.08819237206687766, 0.028175149620797545, -0.05483466271086318, 0.007916879980800349, -0.08279856335272805, -0.08659242145766835, 0.060419670089720774, -0.06061384424721106, 0.0397665893805682, 0.05895533914258697, -0.0497008712579159, 0.10505466542049033, 0.004683116861920035, 0.0024424379205915912, -0.050417534341219455, -0.04950448084920289, -0.11081136135672415, -0.03923704918663896, 0.05890515113108028, -0.051427905061843096, -0.04703484436779563, -0.06496432884035774, -0.06875421848972978, 0.04482932571796338, -0.061359269397786534, -0.0066540081863211325, -0.017944844776980898, 0.0483164802331622, -0.04223918170001847, -0.02176551226902933, -0.055175700179339864, -0.03233677474030507, -0.04552570827204228, -0.0073089348767073695, 0.08085568115252699, -0.010279525227030994, 0.05933332278846502, 0.04773015730052352, -0.00215183713375287, 0.04856511317275101, 0.01165068946063548, -0.07216781910967236, -0.0019638191572295344, 0.010402253001838193, 0.08904335046847009, -0.047055892687700704, 0.02312365725355942, -0.062164454281287584, 0.07792902299383395, 0.06180668817188639, -0.06055477323018439, 0.08794131086716285, 0.05440123668711759, 0.06390253744000114, 0.07929158977947942, 0.05688011945813682, -0.01698492547611205, 0.07587857149249072, -0.04511608467452311, -0.03916254750847952, -0.022998353417488918, 0.016848573252137372, -0.04635859869077913, -0.06049626723396034, -0.046268288892550954, -0.01834316278334899, 0.003560091898016662, -0.03844698659002673, -0.06118966976787118, 0.019688510119976837, 0.09116559664396222, -0.020943155709152207, 0.045050221713948645, 0.0001063312515766149, 0.03218964713813239, 0.04117926293140062, 0.00024545128689522816, -0.04966344804150148, -0.062142738012237866, 0.05809010268557758, 0.031847894137046875, 0.04948212561419344, 0.03415896723251514, 0.05415357135986768, 0.011210323364477809, -0.07673959033489164, 0.014206675717443116, 0.09057238401931886, 0.01773685325388367, -0.0621005545031242, 0.037111812606615495, 0.1094898830802183, -0.02819696742004969, 0.01646655519651144, 0.024009255587104282, 0.010283969318434507, 0.04029040404765476, -0.020464415817061987, 0.031657058248355, 0.0589651082248337, -0.011909771437670602, 0.04068689360249074, -0.0191186668136192, -0.06954563738383386, -0.06968799974393844, 0.02329381064562487, -0.09476052226875803, 0.00468285585887939, -0.03993620411833562, -0.11081022110752133, 0.03446901583304256, -0.07087214410410007, 0.11660353576525531, 0.08269054157835276, -0.0033566889354791547, -0.10149810427298152, 0.014942097217559625, 0.09265794641047777, 0.05362232139427133, 0.056823450432369874, 0.0779591893963295, -0.06331045035485124, 0.0548745612028836, 0.09803629367265851, -0.03130194669048163, -0.02030736997859958, 0.07843967226275744, 0.07044349217531715, -0.04394250560050995, -0.06535974248037216, -0.005769833932409181, -0.07441144467772987, -0.043384278385171345, -0.034508432651502864, 0.056751812354462534, 0.07043797079675575, 0.05697642079671128, -0.041614840389163486, -0.00432574006016789, -0.022839158335733044, 0.01077171448181021, 0.03796019445241365, -0.024063895240496916, -0.051247265421272524, 0.07947942513517137, 0.05422674707766322, 0.017150446530325613, -0.05372154136836087, 0.04376823218776512, -0.008558315333583843, -0.11216173717157674, -0.02658173338258806, 0.023153615333426206, -0.010917310953544713, 0.025728243498568424, 0.02356270979020547, -0.0552209051548469, 0.03454993942216875, 0.03915624297470035, -0.0015409603891961086, 0.0007498144536903882, 0.0005087067798083888, 0.07640440146459525, 0.019323315346275877, 0.006311745738299039, 0.023746816973171603, 0.022673996842210196, -0.004992913269805921, -0.06743904799383346, 0.005490950266432182, 0.02983874185353661, 0.014680951305248685, -0.02516786541626263, -0.00987110794703352, 0.05015095183342806, -0.08513751101997456, -0.03756492959838618, 0.006656677660986061, 0.05250973011055252, 0.09166048846082589, 0.044926857305404765, -0.029939338344153462, -0.08898415444489373, 0.09434617543525743, -0.042507610439385224, 0.007371586029979163, -0.005904828971432513, -0.0034897807595232525, -0.05889841986175349, 0.09071599780030455, -0.04418722350364985, 0.008013368982163722, -0.022483061834410328, 0.030995942842386836, -0.01056735142335079, -0.015816580586085476, 0.05491092212463454, -0.01633588057234472, 0.07126381144559733, -0.06229780260373374, -0.012595843144299705, -0.043421610120849496, 0.0015558364117132057, -0.06936153466722692, 0.03129130388736948, 0.0363228739481834, 0.07607465491682971, 0.042800693275298764, 0.04222878905094959, 0.0343816743056794, -0.011013342151585266, 0.08176600680966271, 0.027997650381600604, 0.1249462962277633, 0.08857843734707567, 0.01750659936649317, 0.019980607178401385, 0.04202245896917634, 0.0799941015816428, -0.0775256036394831, 0.06628682408549566, 0.018850616189052812, 0.05456381134206823, -0.03632913334136642, -0.038607443368868066, 0.017139987797751183, 0.04930389192086205, -0.06220083236155459, -0.020136474320529403, -0.06049354413652827, 0.02111996853894333, 0.10069084023670238, -0.01692241368223408, 0.03961616623163862, 0.006139562505002074, 0.01863334037514687, -0.03011431914944986, 0.033069124067684114, -0.010162760672750619, 0.09049451871674169, -0.025804004270370984, 0.04943529374419549, 0.09968199509304902, 0.06003747982323124, -0.045578999318113274, -0.05037373089670477, 0.0228945629319402, 0.003123227318661033, 0.026035299357364917, 0.060368815712331325, 0.004413913868366616, -0.03175998781549959, 0.010480174633902169, 0.07673812587727442, 0.0018020759637946539, 0.10867170822356884, 0.04470604284388113, 0.039894890134019735, -0.027545891217262756, -0.006323901074179694, 0.0263813526638734, -0.0015007761348642774, 0.06369057203757994, 0.010774706321960517, -0.029789891914433268, 0.017826739360396648, -0.016218190545736286, 0.036635130170564516, -0.023809434228791376, 0.0959088018727904, -0.07263692179149073, -0.013852871237090716, 0.012312293397315719, -0.0212671096377735, -0.11062256855716712, 0.10114301460410755, 0.04201392954053978, -0.05814982406287897, -0.050907078863559906, -0.06909237023464802, -0.0021045359803571655, 0.07945264973585996, -0.009557711262998017, -0.017957937179291904, 0.05401136856504121, 0.02135996137362281, 0.0022631417130472256, 0.04236598942200971, -0.08391963629858448, 0.029139362367880648, 0.070160346916619, -0.057114686098079875, -0.013398161574626009, -0.09305434470463068, -0.016459467664248592, -0.027161262323540502, 0.09161122243511725, -0.017867917329248004, 0.020385001908348847, 0.07332489268239219, -0.10491549772876255, 0.011865421964991784, -0.05047764473594308, -0.049280434476450447, -0.0380957500585331, -0.019639244799336614, -0.046847141306248084, -0.015731768099550455, 0.053975918381673496, 0.02961411298415226, 0.14238492128913707, 0.014476236061451937, 0.03535647439773747, 0.06856439301780186, -0.054683040254572955, 0.06740744742274296, -0.04446112222724092, 0.026573757756510902, 0.051205604089551805, -0.09339824362477372, -0.015938558620631964, -0.0009128440739420078, -0.05400943137475994, 0.01937741784670831, 0.08820434099399119, -0.046471914884834126, 0.06246309282290179, 0.027356991706759762, -0.06593714732331755, -0.01852051763928385, 0.015616002582056877, 0.08268121333383321, 0.04300298124694481, -0.0321383371056914, 0.02248748587368938, -0.1390664852808789, 0.04812747565603532, -0.036167952176873415, -0.050806225027351624, -0.013366178688328961, -0.06038752520051473, -0.007408373585912974, 0.05574009797772116, -0.09719098416433981, -0.0011158777267488635, -0.005421537527158574, 0.028748883297708774, -0.006865136316786406, 0.05079575772004883, 0.07164808375448453, 0.054869415635769886, -0.034173968363328214, 0.10075009412091672, -0.05534068013768422, 0.03906564732013833, 0.06118962686582832, 0.10813953909662592, 0.05399903365334974, -0.035176634407310114, 0.04948838670274813, -0.0036446368268137695, 0.05886954204889416, 0.012934923520097775, 0.07535774549048885, 0.004638243965633218, 0.05065272714775941, -0.027999530850453553, 0.06296179568278235, -0.10521671490514024, 0.03886786787820399, 0.021820207001004056, 0.010885160414561954, -0.10620088481298406, -0.021682766707346115, 0.06410468220089226, -0.03924073251798444, -0.07082508965812293, -0.051003457289221954, 0.06340555134543067, 0.026478894140314357, 0.07516188849285194, 0.038492857594699656, -0.040510097053156946, 0.0955472902971476, -0.027480472147194252, -0.038450232181335385, 0.016023432715491403, 0.024271703327984243, 0.04547167032995859, -0.013843258912998318, 0.07436195271628229, -0.029753551167866918, -0.05220772560671428, -0.09577503906472043, -0.008631750473294121, 0.04527045880393009, 0.03919760991314484, 0.018642077995439838, -0.021241214761597498, 0.06549332846056201, 0.006611543500774865, 0.022348379627104682, -0.05675456275119256, -0.09158285227510576, 0.045998688086635056, 0.1296367982752595, 0.0248728111121787, 0.046290572582741975, 0.04520386165457188, 0.006214695488029387, -0.07596248947304107, 0.0396019289172464, 0.07973752284394525, 0.030064759666094898, -0.007846730666929055, 0.02507989235339009, 0.0007465503001679579, 0.07048601597420119, 0.01534627245554402, 0.041185996317121505, 0.06198065319131978, 0.04144326726623358, 0.00820089240508447, -0.07122794960643691, 0.0272878950199275, 0.05202582140664384, -0.07594425862805228, 0.026249157880550565, 0.005590479968053126, -0.10931709188383482, 0.02192942282136616, 0.07490191924804195, 0.006540122964576802, -0.09984803928771663, 0.023169335752702438, 0.06047045793273852, -0.03799925941559089, -0.007081498580953288, -0.013630489806968238, 0.009572571103589864, -0.015197912128225577, 0.07164149164584607, 0.07035822832919643, -0.02704743338302502, 0.07160126671275105, -0.07979346854584522, -0.03748342603467316, 0.034972432836516285, 0.007953733889863672, 0.010838534912212707, 0.022641611595981485, -0.02087992202227992, 0.06685462464517218, 0.038720060345399036, -0.0015061330860232816, 0.0505099210523249, 0.02677660168162064, -0.008495494682701542, -0.010654414390887558, -0.05426906256110067, -0.027136595872627407, -0.005584864887295745, 0.008018285660933083, -0.04221849520582458, 0.0058237435968436285, -0.02359713893816659, -0.032234367033893846, 0.029945206009176627, 0.012485266948289865, -0.003008022158751654, 0.029557869831231803, -0.06103446894765514, -0.056945077077668035, -0.01667786251680803, -0.005220292316956943, 